=== Run information ===

Scheme:       weka.classifiers.trees.J48 -C 0.25 -M 2
Relation:     KahramanmarasVeriset
Instances:    2184
Attributes:   8
              Tarih
              PM10
              PM10Debi
              SO2
              Havasicakligi
              Ruzgarhizi
              Bagilnem
              kabinsicakligi
Test mode:    10-fold cross-validation

=== Classifier model (full training set) ===

J48 pruned tree
------------------

kabinsicakligi <= 17.29777
|   kabinsicakligi <= 0
|   |   Ruzgarhizi <= 1.829556
|   |   |   Bagilnem <= 50.23336
|   |   |   |   Ruzgarhizi <= 0.325042
|   |   |   |   |   Bagilnem <= 47.89642: 1/6/2020 (8.01/0.01)
|   |   |   |   |   Bagilnem > 47.89642: 1/5/2020 (11.01/0.01)
|   |   |   |   Ruzgarhizi > 0.325042
|   |   |   |   |   Bagilnem <= 48.44695
|   |   |   |   |   |   Bagilnem <= 46.25042
|   |   |   |   |   |   |   Ruzgarhizi <= 0.504208
|   |   |   |   |   |   |   |   SO2 <= 6.111043: 1/15/2020 (2.0/1.0)
|   |   |   |   |   |   |   |   SO2 > 6.111043: 1/16/2020 (8.01/0.01)
|   |   |   |   |   |   |   Ruzgarhizi > 0.504208
|   |   |   |   |   |   |   |   Bagilnem <= 44.13295: 1/19/2020 (13.01/5.01)
|   |   |   |   |   |   |   |   Bagilnem > 44.13295
|   |   |   |   |   |   |   |   |   PM10 <= 159.5949
|   |   |   |   |   |   |   |   |   |   SO2 <= 7.989234
|   |   |   |   |   |   |   |   |   |   |   SO2 <= 6.317264: 1/14/2020 (2.0/1.0)
|   |   |   |   |   |   |   |   |   |   |   SO2 > 6.317264: 1/11/2020 (4.0/0.0)
|   |   |   |   |   |   |   |   |   |   SO2 > 7.989234
|   |   |   |   |   |   |   |   |   |   |   Ruzgarhizi <= 1.193403: 1/14/2020 (7.01/1.01)
|   |   |   |   |   |   |   |   |   |   |   Ruzgarhizi > 1.193403: 1/19/2020 (2.0/1.0)
|   |   |   |   |   |   |   |   |   PM10 > 159.5949
|   |   |   |   |   |   |   |   |   |   SO2 <= 8.448669: 1/19/2020 (3.0/1.0)
|   |   |   |   |   |   |   |   |   |   SO2 > 8.448669: 1/15/2020 (6.01/1.01)
|   |   |   |   |   |   Bagilnem > 46.25042
|   |   |   |   |   |   |   SO2 <= 7.146023: 1/10/2020 (7.01/1.01)
|   |   |   |   |   |   |   SO2 > 7.146023
|   |   |   |   |   |   |   |   SO2 <= 15.43747
|   |   |   |   |   |   |   |   |   Bagilnem <= 47.03764
|   |   |   |   |   |   |   |   |   |   PM10 <= 259.7535: 1/12/2020 (11.01/3.01)
|   |   |   |   |   |   |   |   |   |   PM10 > 259.7535: 1/18/2020 (2.0/1.0)
|   |   |   |   |   |   |   |   |   Bagilnem > 47.03764
|   |   |   |   |   |   |   |   |   |   Bagilnem <= 48.02628
|   |   |   |   |   |   |   |   |   |   |   PM10 <= 145.1388: 1/21/2020 (12.01/4.01)
|   |   |   |   |   |   |   |   |   |   |   PM10 > 145.1388
|   |   |   |   |   |   |   |   |   |   |   |   Ruzgarhizi <= 0.758458: 1/11/2020 (3.0/0.0)
|   |   |   |   |   |   |   |   |   |   |   |   Ruzgarhizi > 0.758458: 1/18/2020 (2.0/1.0)
|   |   |   |   |   |   |   |   |   |   Bagilnem > 48.02628
|   |   |   |   |   |   |   |   |   |   |   SO2 <= 11.95415: 1/18/2020 (6.01/1.01)
|   |   |   |   |   |   |   |   |   |   |   SO2 > 11.95415
|   |   |   |   |   |   |   |   |   |   |   |   PM10 <= 255.1705: 1/14/2020 (3.0/1.0)
|   |   |   |   |   |   |   |   |   |   |   |   PM10 > 255.1705: 1/17/2020 (2.0/1.0)
|   |   |   |   |   |   |   |   SO2 > 15.43747
|   |   |   |   |   |   |   |   |   PM10 <= 231.2645: 1/21/2020 (2.0/0.0)
|   |   |   |   |   |   |   |   |   PM10 > 231.2645
|   |   |   |   |   |   |   |   |   |   SO2 <= 19.08069: 1/15/2020 (2.0/0.0)
|   |   |   |   |   |   |   |   |   |   SO2 > 19.08069: 1/16/2020 (3.0/1.0)
|   |   |   |   |   Bagilnem > 48.44695
|   |   |   |   |   |   SO2 <= 16.54288
|   |   |   |   |   |   |   Ruzgarhizi <= 0.951931
|   |   |   |   |   |   |   |   Bagilnem <= 49.08686
|   |   |   |   |   |   |   |   |   Bagilnem <= 48.67833: 1/17/2020 (4.0/1.0)
|   |   |   |   |   |   |   |   |   Bagilnem > 48.67833
|   |   |   |   |   |   |   |   |   |   Bagilnem <= 48.99244
|   |   |   |   |   |   |   |   |   |   |   PM10 <= 77.1983: 1/18/2020 (2.0/0.0)
|   |   |   |   |   |   |   |   |   |   |   PM10 > 77.1983: 1/20/2020 (11.01/1.01)
|   |   |   |   |   |   |   |   |   |   Bagilnem > 48.99244: 1/17/2020 (2.0/1.0)
|   |   |   |   |   |   |   |   Bagilnem > 49.08686
|   |   |   |   |   |   |   |   |   Bagilnem <= 49.33033
|   |   |   |   |   |   |   |   |   |   SO2 <= 11.37666: 1/17/2020 (2.0/0.0)
|   |   |   |   |   |   |   |   |   |   SO2 > 11.37666: 1/19/2020 (6.01/1.01)
|   |   |   |   |   |   |   |   |   Bagilnem > 49.33033
|   |   |   |   |   |   |   |   |   |   Ruzgarhizi <= 0.788139
|   |   |   |   |   |   |   |   |   |   |   Ruzgarhizi <= 0.636208
|   |   |   |   |   |   |   |   |   |   |   |   Ruzgarhizi <= 0.517903: 1/18/2020 (2.0/1.0)
|   |   |   |   |   |   |   |   |   |   |   |   Ruzgarhizi > 0.517903: 1/2/2020 (3.0/0.0)
|   |   |   |   |   |   |   |   |   |   |   Ruzgarhizi > 0.636208: 1/18/2020 (3.0/0.0)
|   |   |   |   |   |   |   |   |   |   Ruzgarhizi > 0.788139: 1/2/2020 (3.0/1.0)
|   |   |   |   |   |   |   Ruzgarhizi > 0.951931
|   |   |   |   |   |   |   |   PM10 <= 131.1047
|   |   |   |   |   |   |   |   |   Ruzgarhizi <= 1.393208
|   |   |   |   |   |   |   |   |   |   SO2 <= 11.06607: 1/10/2020 (7.01/0.01)
|   |   |   |   |   |   |   |   |   |   SO2 > 11.06607: 1/19/2020 (3.0/1.0)
|   |   |   |   |   |   |   |   |   Ruzgarhizi > 1.393208
|   |   |   |   |   |   |   |   |   |   SO2 <= 8.811096: 1/19/2020 (2.0/0.0)
|   |   |   |   |   |   |   |   |   |   SO2 > 8.811096: 1/20/2020 (2.0/0.0)
|   |   |   |   |   |   |   |   PM10 > 131.1047
|   |   |   |   |   |   |   |   |   SO2 <= 10.99226: 1/13/2020 (2.0/1.0)
|   |   |   |   |   |   |   |   |   SO2 > 10.99226: 1/6/2020 (4.0/0.0)
|   |   |   |   |   |   SO2 > 16.54288
|   |   |   |   |   |   |   PM10 <= 440.4356
|   |   |   |   |   |   |   |   Bagilnem <= 48.66864: 1/17/2020 (3.0/0.0)
|   |   |   |   |   |   |   |   Bagilnem > 48.66864: 1/16/2020 (6.01/1.01)
|   |   |   |   |   |   |   PM10 > 440.4356
|   |   |   |   |   |   |   |   PM10 <= 669: 1/11/2020 (3.0/1.0)
|   |   |   |   |   |   |   |   PM10 > 669: 1/15/2020 (2.0/0.0)
|   |   |   Bagilnem > 50.23336
|   |   |   |   SO2 <= 12.12937
|   |   |   |   |   SO2 <= 6.407006
|   |   |   |   |   |   Ruzgarhizi <= 1.071736: 1/1/2020 (6.01/1.01)
|   |   |   |   |   |   Ruzgarhizi > 1.071736
|   |   |   |   |   |   |   SO2 <= 4.804586: 1/13/2020 (7.04/0.04)
|   |   |   |   |   |   |   SO2 > 4.804586
|   |   |   |   |   |   |   |   Bagilnem <= 53.068: 1/13/2020 (5.06/3.06)
|   |   |   |   |   |   |   |   Bagilnem > 53.068: 1/10/2020 (5.0/0.0)
|   |   |   |   |   SO2 > 6.407006
|   |   |   |   |   |   Bagilnem <= 51.79453
|   |   |   |   |   |   |   Ruzgarhizi <= 1.091194
|   |   |   |   |   |   |   |   SO2 <= 10.80951
|   |   |   |   |   |   |   |   |   Bagilnem <= 50.71522
|   |   |   |   |   |   |   |   |   |   Bagilnem <= 50.53853
|   |   |   |   |   |   |   |   |   |   |   PM10 <= 88.95184: 1/9/2020 (3.0/1.0)
|   |   |   |   |   |   |   |   |   |   |   PM10 > 88.95184: 1/4/2020 (3.0/0.0)
|   |   |   |   |   |   |   |   |   |   Bagilnem > 50.53853: 1/2/2020 (3.0/1.0)
|   |   |   |   |   |   |   |   |   Bagilnem > 50.71522
|   |   |   |   |   |   |   |   |   |   SO2 <= 7.094869: 1/1/2020 (2.0/0.0)
|   |   |   |   |   |   |   |   |   |   SO2 > 7.094869
|   |   |   |   |   |   |   |   |   |   |   SO2 <= 9.100335: 1/4/2020 (6.01/0.01)
|   |   |   |   |   |   |   |   |   |   |   SO2 > 9.100335
|   |   |   |   |   |   |   |   |   |   |   |   PM10 <= 122.1825: 1/9/2020 (3.43/1.43)
|   |   |   |   |   |   |   |   |   |   |   |   PM10 > 122.1825: 1/4/2020 (4.58/0.58)
|   |   |   |   |   |   |   |   SO2 > 10.80951: 1/17/2020 (3.0/1.0)
|   |   |   |   |   |   |   Ruzgarhizi > 1.091194
|   |   |   |   |   |   |   |   Bagilnem <= 50.63094: 1/19/2020 (4.0/1.0)
|   |   |   |   |   |   |   |   Bagilnem > 50.63094
|   |   |   |   |   |   |   |   |   Ruzgarhizi <= 1.332194
|   |   |   |   |   |   |   |   |   |   SO2 <= 10.52378: 1/18/2020 (2.0/1.0)
|   |   |   |   |   |   |   |   |   |   SO2 > 10.52378: 1/5/2020 (3.0/1.0)
|   |   |   |   |   |   |   |   |   Ruzgarhizi > 1.332194: 1/6/2020 (6.01/2.01)
|   |   |   |   |   |   Bagilnem > 51.79453
|   |   |   |   |   |   |   Bagilnem <= 54.44358
|   |   |   |   |   |   |   |   PM10 <= 105.413
|   |   |   |   |   |   |   |   |   SO2 <= 9.255755
|   |   |   |   |   |   |   |   |   |   SO2 <= 6.834514: 1/8/2020 (5.04/1.04)
|   |   |   |   |   |   |   |   |   |   SO2 > 6.834514
|   |   |   |   |   |   |   |   |   |   |   Bagilnem <= 52.49111
|   |   |   |   |   |   |   |   |   |   |   |   Ruzgarhizi <= 1.149236
|   |   |   |   |   |   |   |   |   |   |   |   |   Bagilnem <= 51.9948: 1/9/2020 (3.0/1.0)
|   |   |   |   |   |   |   |   |   |   |   |   |   Bagilnem > 51.9948
|   |   |   |   |   |   |   |   |   |   |   |   |   |   SO2 <= 7.571623: 1/3/2020 (3.0/0.0)
|   |   |   |   |   |   |   |   |   |   |   |   |   |   SO2 > 7.571623
|   |   |   |   |   |   |   |   |   |   |   |   |   |   |   Bagilnem <= 52.11319: 1/3/2020 (2.0/0.0)
|   |   |   |   |   |   |   |   |   |   |   |   |   |   |   Bagilnem > 52.11319: 1/9/2020 (5.0/0.0)
|   |   |   |   |   |   |   |   |   |   |   |   Ruzgarhizi > 1.149236: 1/10/2020 (3.0/2.0)
|   |   |   |   |   |   |   |   |   |   |   Bagilnem > 52.49111
|   |   |   |   |   |   |   |   |   |   |   |   PM10 <= 59.35694: 1/9/2020 (2.12/1.12)
|   |   |   |   |   |   |   |   |   |   |   |   PM10 > 59.35694
|   |   |   |   |   |   |   |   |   |   |   |   |   Bagilnem <= 53.36939
|   |   |   |   |   |   |   |   |   |   |   |   |   |   Bagilnem <= 52.83286: 1/3/2020 (4.23/1.23)
|   |   |   |   |   |   |   |   |   |   |   |   |   |   Bagilnem > 52.83286: 1/4/2020 (4.13/1.13)
|   |   |   |   |   |   |   |   |   |   |   |   |   Bagilnem > 53.36939: 1/3/2020 (8.58/1.58)
|   |   |   |   |   |   |   |   |   SO2 > 9.255755
|   |   |   |   |   |   |   |   |   |   Ruzgarhizi <= 0.984028
|   |   |   |   |   |   |   |   |   |   |   SO2 <= 9.824943: 1/3/2020 (3.0/0.0)
|   |   |   |   |   |   |   |   |   |   |   SO2 > 9.824943
|   |   |   |   |   |   |   |   |   |   |   |   SO2 <= 11.17198: 1/8/2020 (6.01/0.01)
|   |   |   |   |   |   |   |   |   |   |   |   SO2 > 11.17198: 1/3/2020 (2.0/1.0)
|   |   |   |   |   |   |   |   |   |   Ruzgarhizi > 0.984028
|   |   |   |   |   |   |   |   |   |   |   Bagilnem <= 53.59128: 1/17/2020 (5.14/0.14)
|   |   |   |   |   |   |   |   |   |   |   Bagilnem > 53.59128: 1/21/2020 (2.65/0.65)
|   |   |   |   |   |   |   |   PM10 > 105.413
|   |   |   |   |   |   |   |   |   Bagilnem <= 52.54894
|   |   |   |   |   |   |   |   |   |   SO2 <= 9.644135
|   |   |   |   |   |   |   |   |   |   |   PM10 <= 136.5014: 1/1/2020 (4.0/1.0)
|   |   |   |   |   |   |   |   |   |   |   PM10 > 136.5014: 1/11/2020 (3.0/1.0)
|   |   |   |   |   |   |   |   |   |   SO2 > 9.644135
|   |   |   |   |   |   |   |   |   |   |   PM10 <= 190.901: 1/4/2020 (6.01/2.01)
|   |   |   |   |   |   |   |   |   |   |   PM10 > 190.901: 1/9/2020 (3.0/1.0)
|   |   |   |   |   |   |   |   |   Bagilnem > 52.54894
|   |   |   |   |   |   |   |   |   |   Bagilnem <= 53.23683
|   |   |   |   |   |   |   |   |   |   |   Ruzgarhizi <= 0.976014: 1/3/2020 (4.0/1.0)
|   |   |   |   |   |   |   |   |   |   |   Ruzgarhizi > 0.976014: 1/13/2020 (2.32/1.32)
|   |   |   |   |   |   |   |   |   |   Bagilnem > 53.23683
|   |   |   |   |   |   |   |   |   |   |   Bagilnem <= 54.29822
|   |   |   |   |   |   |   |   |   |   |   |   PM10 <= 211.0708
|   |   |   |   |   |   |   |   |   |   |   |   |   PM10 <= 172.1469: 1/14/2020 (2.1/1.1)
|   |   |   |   |   |   |   |   |   |   |   |   |   PM10 > 172.1469: 1/12/2020 (2.1/0.1)
|   |   |   |   |   |   |   |   |   |   |   |   PM10 > 211.0708: 1/15/2020 (3.15/1.15)
|   |   |   |   |   |   |   |   |   |   |   Bagilnem > 54.29822: 1/21/2020 (2.35/1.35)
|   |   |   |   |   |   |   Bagilnem > 54.44358
|   |   |   |   |   |   |   |   PM10 <= 106.9178
|   |   |   |   |   |   |   |   |   Ruzgarhizi <= 1.086236
|   |   |   |   |   |   |   |   |   |   SO2 <= 8.57844: 1/11/2020 (2.04/1.04)
|   |   |   |   |   |   |   |   |   |   SO2 > 8.57844: 1/14/2020 (2.0/0.0)
|   |   |   |   |   |   |   |   |   Ruzgarhizi > 1.086236
|   |   |   |   |   |   |   |   |   |   Ruzgarhizi <= 1.524069
|   |   |   |   |   |   |   |   |   |   |   SO2 <= 7.168434
|   |   |   |   |   |   |   |   |   |   |   |   SO2 <= 6.867038: 1/9/2020 (2.0/0.0)
|   |   |   |   |   |   |   |   |   |   |   |   SO2 > 6.867038: 1/5/2020 (2.0/0.0)
|   |   |   |   |   |   |   |   |   |   |   SO2 > 7.168434
|   |   |   |   |   |   |   |   |   |   |   |   Bagilnem <= 55.6442
|   |   |   |   |   |   |   |   |   |   |   |   |   SO2 <= 9.376623
|   |   |   |   |   |   |   |   |   |   |   |   |   |   PM10 <= 87.02408: 1/18/2020 (4.0/2.0)
|   |   |   |   |   |   |   |   |   |   |   |   |   |   PM10 > 87.02408: 1/9/2020 (3.0/1.0)
|   |   |   |   |   |   |   |   |   |   |   |   |   SO2 > 9.376623: 1/8/2020 (3.0/1.0)
|   |   |   |   |   |   |   |   |   |   |   |   Bagilnem > 55.6442
|   |   |   |   |   |   |   |   |   |   |   |   |   PM10 <= 81.83144: 1/8/2020 (4.0/0.0)
|   |   |   |   |   |   |   |   |   |   |   |   |   PM10 > 81.83144: 1/14/2020 (2.0/0.0)
|   |   |   |   |   |   |   |   |   |   Ruzgarhizi > 1.524069: 1/18/2020 (3.0/1.0)
|   |   |   |   |   |   |   |   PM10 > 106.9178
|   |   |   |   |   |   |   |   |   Ruzgarhizi <= 0.866972: 1/2/2020 (2.0/0.0)
|   |   |   |   |   |   |   |   |   Ruzgarhizi > 0.866972: 1/15/2020 (4.19/1.19)
|   |   |   |   SO2 > 12.12937
|   |   |   |   |   PM10 <= 161.483
|   |   |   |   |   |   SO2 <= 16.58182
|   |   |   |   |   |   |   Bagilnem <= 51.40155: 1/17/2020 (5.62/1.62)
|   |   |   |   |   |   |   Bagilnem > 51.40155
|   |   |   |   |   |   |   |   SO2 <= 13.5923: 1/2/2020 (7.46/1.41)
|   |   |   |   |   |   |   |   SO2 > 13.5923: 1/3/2020 (3.83/1.83)
|   |   |   |   |   |   SO2 > 16.58182
|   |   |   |   |   |   |   SO2 <= 22.65521: 1/16/2020 (5.43/0.43)
|   |   |   |   |   |   |   SO2 > 22.65521: 1/1/2020 (2.03/0.01)
|   |   |   |   |   PM10 > 161.483
|   |   |   |   |   |   Ruzgarhizi <= 1.087722
|   |   |   |   |   |   |   Ruzgarhizi <= 0.69707: 1/15/2020 (5.79/2.79)
|   |   |   |   |   |   |   Ruzgarhizi > 0.69707
|   |   |   |   |   |   |   |   Ruzgarhizi <= 1.013958
|   |   |   |   |   |   |   |   |   Ruzgarhizi <= 0.722806: 1/14/2020 (4.0/1.0)
|   |   |   |   |   |   |   |   |   Ruzgarhizi > 0.722806: 1/12/2020 (12.2/4.2)
|   |   |   |   |   |   |   |   Ruzgarhizi > 1.013958: 1/21/2020 (2.6/1.6)
|   |   |   |   |   |   Ruzgarhizi > 1.087722
|   |   |   |   |   |   |   Bagilnem <= 51.24406: 1/6/2020 (5.0/0.0)
|   |   |   |   |   |   |   Bagilnem > 51.24406
|   |   |   |   |   |   |   |   Bagilnem <= 53.00239: 1/16/2020 (2.74/0.74)
|   |   |   |   |   |   |   |   Bagilnem > 53.00239: 1/1/2020 (3.58/0.0)
|   |   Ruzgarhizi > 1.829556
|   |   |   Bagilnem <= 53.1403
|   |   |   |   SO2 <= 8.285972
|   |   |   |   |   SO2 <= 6.427619: 1/13/2020 (4.23/0.23)
|   |   |   |   |   SO2 > 6.427619: 1/8/2020 (4.0/0.0)
|   |   |   |   SO2 > 8.285972: 1/20/2020 (11.01/0.01)
|   |   |   Bagilnem > 53.1403
|   |   |   |   Ruzgarhizi <= 2.575056
|   |   |   |   |   SO2 <= 4.11691: 1/13/2020 (4.0/0.0)
|   |   |   |   |   SO2 > 4.11691: 1/18/2020 (3.0/2.0)
|   |   |   |   Ruzgarhizi > 2.575056: 1/7/2020 (24.25/1.25)
|   kabinsicakligi > 0
|   |   Ruzgarhizi <= 1.792736
|   |   |   Havasicakligi <= -8.306224
|   |   |   |   kabinsicakligi <= 14.09329
|   |   |   |   |   kabinsicakligi <= 13.10224: 2/11/2020 (13.03/0.03)
|   |   |   |   |   kabinsicakligi > 13.10224: 2/10/2020 (11.02/1.02)
|   |   |   |   kabinsicakligi > 14.09329
|   |   |   |   |   PM10 <= 58.414975
|   |   |   |   |   |   PM10 <= 38.62553: 1/25/2020 (3.03/0.03)
|   |   |   |   |   |   PM10 > 38.62553
|   |   |   |   |   |   |   SO2 <= 16.74582: 2/9/2020 (3.01/0.01)
|   |   |   |   |   |   |   SO2 > 16.74582: 2/10/2020 (2.0/0.0)
|   |   |   |   |   PM10 > 58.414975
|   |   |   |   |   |   Havasicakligi <= -12.54462: 2/14/2020 (10.02/0.02)
|   |   |   |   |   |   Havasicakligi > -12.54462
|   |   |   |   |   |   |   Ruzgarhizi <= 1.117028
|   |   |   |   |   |   |   |   Havasicakligi <= -9.915559: 2/15/2020 (9.01/0.01)
|   |   |   |   |   |   |   |   Havasicakligi > -9.915559: 1/26/2020 (6.01/1.0)
|   |   |   |   |   |   |   Ruzgarhizi > 1.117028: 2/14/2020 (3.01/1.01)
|   |   |   Havasicakligi > -8.306224
|   |   |   |   SO2 <= 17.2988
|   |   |   |   |   kabinsicakligi <= 14.50595
|   |   |   |   |   |   Ruzgarhizi <= 1.094458: 2/2/2020 (13.03/2.03)
|   |   |   |   |   |   Ruzgarhizi > 1.094458: 2/1/2020 (7.02/1.02)
|   |   |   |   |   kabinsicakligi > 14.50595
|   |   |   |   |   |   Havasicakligi <= -4.983003
|   |   |   |   |   |   |   kabinsicakligi <= 15.58371
|   |   |   |   |   |   |   |   Havasicakligi <= -6.314144: 2/11/2020 (2.01/1.01)
|   |   |   |   |   |   |   |   Havasicakligi > -6.314144: 2/2/2020 (2.01/0.01)
|   |   |   |   |   |   |   kabinsicakligi > 15.58371
|   |   |   |   |   |   |   |   Bagilnem <= 45.77417: 1/25/2020 (7.01/1.01)
|   |   |   |   |   |   |   |   Bagilnem > 45.77417: 1/23/2020 (3.02/1.02)
|   |   |   |   |   |   Havasicakligi > -4.983003
|   |   |   |   |   |   |   Havasicakligi <= -3.322695
|   |   |   |   |   |   |   |   SO2 <= 12.3786: 2/1/2020 (2.01/0.01)
|   |   |   |   |   |   |   |   SO2 > 12.3786: 2/15/2020 (2.0/1.0)
|   |   |   |   |   |   |   Havasicakligi > -3.322695
|   |   |   |   |   |   |   |   Bagilnem <= 50.27283
|   |   |   |   |   |   |   |   |   Ruzgarhizi <= 0.832653: 2/3/2020 (12.01/1.01)
|   |   |   |   |   |   |   |   |   Ruzgarhizi > 0.832653: 2/1/2020 (2.0/0.0)
|   |   |   |   |   |   |   |   Bagilnem > 50.27283
|   |   |   |   |   |   |   |   |   SO2 <= 10.88855
|   |   |   |   |   |   |   |   |   |   Havasicakligi <= 2.117847: 1/25/2020 (3.03/0.03)
|   |   |   |   |   |   |   |   |   |   Havasicakligi > 2.117847: 2/1/2020 (3.03/0.03)
|   |   |   |   |   |   |   |   |   SO2 > 10.88855
|   |   |   |   |   |   |   |   |   |   kabinsicakligi <= 16.60935: 2/3/2020 (5.0/1.0)
|   |   |   |   |   |   |   |   |   |   kabinsicakligi > 16.60935: 2/2/2020 (4.0/1.0)
|   |   |   |   SO2 > 17.2988
|   |   |   |   |   kabinsicakligi <= 15.64922: 2/11/2020 (9.01/1.01)
|   |   |   |   |   kabinsicakligi > 15.64922
|   |   |   |   |   |   PM10 <= 108.4383: 2/12/2020 (12.01/0.01)
|   |   |   |   |   |   PM10 > 108.4383: 1/26/2020 (3.0/0.0)
|   |   Ruzgarhizi > 1.792736
|   |   |   Havasicakligi <= -4.9
|   |   |   |   SO2 <= 5.630602
|   |   |   |   |   kabinsicakligi <= 15.80622: 2/9/2020 (15.09/0.09)
|   |   |   |   |   kabinsicakligi > 15.80622: 2/8/2020 (2.01/0.01)
|   |   |   |   SO2 > 5.630602
|   |   |   |   |   kabinsicakligi <= 16.2
|   |   |   |   |   |   Bagilnem <= 43.13592
|   |   |   |   |   |   |   PM10 <= 19.69362: 2/9/2020 (2.0/0.0)
|   |   |   |   |   |   |   PM10 > 19.69362
|   |   |   |   |   |   |   |   Havasicakligi <= -8.281303: 2/10/2020 (3.0/0.0)
|   |   |   |   |   |   |   |   Havasicakligi > -8.281303: 2/9/2020 (3.0/1.0)
|   |   |   |   |   |   Bagilnem > 43.13592: 2/10/2020 (8.03/0.03)
|   |   |   |   |   kabinsicakligi > 16.2: 2/9/2020 (3.01/1.01)
|   |   |   Havasicakligi > -4.9
|   |   |   |   Bagilnem <= 50.165
|   |   |   |   |   Ruzgarhizi <= 2.960083
|   |   |   |   |   |   Bagilnem <= 48.36467: 2/1/2020 (5.0/0.0)
|   |   |   |   |   |   Bagilnem > 48.36467: 2/8/2020 (4.0/0.0)
|   |   |   |   |   Ruzgarhizi > 2.960083: 2/8/2020 (12.05/1.01)
|   |   |   |   Bagilnem > 50.165: 1/21/2020 (4.04/1.04)
kabinsicakligi > 17.29777
|   kabinsicakligi <= 19.71018
|   |   Havasicakligi <= 2.875036
|   |   |   SO2 <= 8.515245
|   |   |   |   kabinsicakligi <= 19.19759
|   |   |   |   |   Havasicakligi <= -0.608936
|   |   |   |   |   |   Havasicakligi <= -5.922631
|   |   |   |   |   |   |   SO2 <= 6.218392: 1/27/2020 (4.02/0.02)
|   |   |   |   |   |   |   SO2 > 6.218392
|   |   |   |   |   |   |   |   Bagilnem <= 40.04716: 2/14/2020 (2.0/0.0)
|   |   |   |   |   |   |   |   Bagilnem > 40.04716: 1/23/2020 (5.03/1.03)
|   |   |   |   |   |   Havasicakligi > -5.922631
|   |   |   |   |   |   |   kabinsicakligi <= 18.79749
|   |   |   |   |   |   |   |   PM10 <= 5.956028: 1/22/2020 (2.01/0.01)
|   |   |   |   |   |   |   |   PM10 > 5.956028
|   |   |   |   |   |   |   |   |   SO2 <= 7.136891: 1/24/2020 (8.02/0.02)
|   |   |   |   |   |   |   |   |   SO2 > 7.136891: 2/26/2020 (3.03/0.03)
|   |   |   |   |   |   |   kabinsicakligi > 18.79749
|   |   |   |   |   |   |   |   Ruzgarhizi <= 0.714486
|   |   |   |   |   |   |   |   |   SO2 <= 7.328793: 3/4/2020 (3.0/2.0)
|   |   |   |   |   |   |   |   |   SO2 > 7.328793: 3/19/2020 (3.03/2.03)
|   |   |   |   |   |   |   |   Ruzgarhizi > 0.714486: 2/13/2020 (15.07/3.07)
|   |   |   |   |   Havasicakligi > -0.608936
|   |   |   |   |   |   Ruzgarhizi <= 1.303333
|   |   |   |   |   |   |   PM10 <= 36.42433: 3/8/2020 (5.04/0.04)
|   |   |   |   |   |   |   PM10 > 36.42433
|   |   |   |   |   |   |   |   Ruzgarhizi <= 0.748333: 3/9/2020 (4.0/0.0)
|   |   |   |   |   |   |   |   Ruzgarhizi > 0.748333: 2/26/2020 (2.02/1.02)
|   |   |   |   |   |   Ruzgarhizi > 1.303333
|   |   |   |   |   |   |   SO2 <= 5.413209
|   |   |   |   |   |   |   |   Havasicakligi <= -0.093494: 1/31/2020 (2.01/0.01)
|   |   |   |   |   |   |   |   Havasicakligi > -0.093494: 2/8/2020 (3.02/1.01)
|   |   |   |   |   |   |   SO2 > 5.413209
|   |   |   |   |   |   |   |   Ruzgarhizi <= 1.842806: 1/22/2020 (4.0/1.0)
|   |   |   |   |   |   |   |   Ruzgarhizi > 1.842806: 2/1/2020 (3.01/1.01)
|   |   |   |   kabinsicakligi > 19.19759
|   |   |   |   |   Ruzgarhizi <= 1.220306
|   |   |   |   |   |   SO2 <= 5.839858
|   |   |   |   |   |   |   Bagilnem <= 49.119
|   |   |   |   |   |   |   |   PM10 <= 34.18697
|   |   |   |   |   |   |   |   |   PM10 <= 26.34326: 3/2/2020 (2.0/0.0)
|   |   |   |   |   |   |   |   |   PM10 > 26.34326: 3/22/2020 (2.0/0.0)
|   |   |   |   |   |   |   |   PM10 > 34.18697: 3/4/2020 (3.0/1.0)
|   |   |   |   |   |   |   Bagilnem > 49.119
|   |   |   |   |   |   |   |   Havasicakligi <= 1.588128
|   |   |   |   |   |   |   |   |   PM10 <= 26.36879: 3/31/2020 (5.0/1.0)
|   |   |   |   |   |   |   |   |   PM10 > 26.36879: 3/23/2020 (4.0/0.0)
|   |   |   |   |   |   |   |   Havasicakligi > 1.588128: 3/30/2020 (3.0/0.0)
|   |   |   |   |   |   SO2 > 5.839858
|   |   |   |   |   |   |   Bagilnem <= 50.32361
|   |   |   |   |   |   |   |   Bagilnem <= 48.34967
|   |   |   |   |   |   |   |   |   Bagilnem <= 48.04278: 3/3/2020 (5.0/2.0)
|   |   |   |   |   |   |   |   |   Bagilnem > 48.04278
|   |   |   |   |   |   |   |   |   |   PM10 <= 34.134984: 3/19/2020 (5.0/0.0)
|   |   |   |   |   |   |   |   |   |   PM10 > 34.134984: 3/3/2020 (2.0/1.0)
|   |   |   |   |   |   |   |   Bagilnem > 48.34967
|   |   |   |   |   |   |   |   |   kabinsicakligi <= 19.50623
|   |   |   |   |   |   |   |   |   |   Havasicakligi <= -0.320112: 3/21/2020 (6.01/1.01)
|   |   |   |   |   |   |   |   |   |   Havasicakligi > -0.320112: 3/22/2020 (3.0/1.0)
|   |   |   |   |   |   |   |   |   kabinsicakligi > 19.50623
|   |   |   |   |   |   |   |   |   |   SO2 <= 6.058209: 3/22/2020 (2.0/0.0)
|   |   |   |   |   |   |   |   |   |   SO2 > 6.058209: 3/18/2020 (2.0/1.0)
|   |   |   |   |   |   |   Bagilnem > 50.32361
|   |   |   |   |   |   |   |   PM10 <= 33.586824
|   |   |   |   |   |   |   |   |   Havasicakligi <= 1.414894
|   |   |   |   |   |   |   |   |   |   Bagilnem <= 51.04014: 3/18/2020 (7.01/1.01)
|   |   |   |   |   |   |   |   |   |   Bagilnem > 51.04014
|   |   |   |   |   |   |   |   |   |   |   SO2 <= 7.073443: 3/31/2020 (3.0/1.0)
|   |   |   |   |   |   |   |   |   |   |   SO2 > 7.073443: 3/20/2020 (3.1/1.1)
|   |   |   |   |   |   |   |   |   Havasicakligi > 1.414894
|   |   |   |   |   |   |   |   |   |   PM10 <= 25.62323: 3/30/2020 (3.0/1.0)
|   |   |   |   |   |   |   |   |   |   PM10 > 25.62323: 2/24/2020 (2.04/0.04)
|   |   |   |   |   |   |   |   PM10 > 33.586824
|   |   |   |   |   |   |   |   |   kabinsicakligi <= 19.4
|   |   |   |   |   |   |   |   |   |   Havasicakligi <= 1.71875
|   |   |   |   |   |   |   |   |   |   |   Ruzgarhizi <= 0.683056
|   |   |   |   |   |   |   |   |   |   |   |   Bagilnem <= 52.1035: 3/20/2020 (6.01/1.01)
|   |   |   |   |   |   |   |   |   |   |   |   Bagilnem > 52.1035: 3/19/2020 (2.0/0.0)
|   |   |   |   |   |   |   |   |   |   |   Ruzgarhizi > 0.683056: 3/17/2020 (4.0/1.0)
|   |   |   |   |   |   |   |   |   |   Havasicakligi > 1.71875
|   |   |   |   |   |   |   |   |   |   |   SO2 <= 8.12218: 3/19/2020 (4.0/0.0)
|   |   |   |   |   |   |   |   |   |   |   SO2 > 8.12218: 3/4/2020 (2.0/1.0)
|   |   |   |   |   |   |   |   |   kabinsicakligi > 19.4
|   |   |   |   |   |   |   |   |   |   PM10 <= 36.11332: 3/23/2020 (2.0/1.0)
|   |   |   |   |   |   |   |   |   |   PM10 > 36.11332
|   |   |   |   |   |   |   |   |   |   |   Havasicakligi <= 2.16034: 3/20/2020 (5.0/0.0)
|   |   |   |   |   |   |   |   |   |   |   Havasicakligi > 2.16034: 3/23/2020 (2.0/1.0)
|   |   |   |   |   Ruzgarhizi > 1.220306
|   |   |   |   |   |   Bagilnem <= 51.43597
|   |   |   |   |   |   |   Havasicakligi <= -2.368715: 1/24/2020 (3.02/1.02)
|   |   |   |   |   |   |   Havasicakligi > -2.368715: 3/18/2020 (20.13/5.13)
|   |   |   |   |   |   Bagilnem > 51.43597
|   |   |   |   |   |   |   Bagilnem <= 53.44458: 3/17/2020 (8.14/1.14)
|   |   |   |   |   |   |   Bagilnem > 53.44458: 3/19/2020 (3.06/0.06)
|   |   |   SO2 > 8.515245
|   |   |   |   SO2 <= 26.2033
|   |   |   |   |   Bagilnem <= 46.48339
|   |   |   |   |   |   Ruzgarhizi <= 0.976014
|   |   |   |   |   |   |   kabinsicakligi <= 19.19234
|   |   |   |   |   |   |   |   PM10 <= 48.75106
|   |   |   |   |   |   |   |   |   PM10 <= 35.15581: 2/13/2020 (2.0/1.0)
|   |   |   |   |   |   |   |   |   PM10 > 35.15581: 2/26/2020 (3.0/1.0)
|   |   |   |   |   |   |   |   PM10 > 48.75106
|   |   |   |   |   |   |   |   |   Bagilnem <= 42.98078
|   |   |   |   |   |   |   |   |   |   Havasicakligi <= -8.531206
|   |   |   |   |   |   |   |   |   |   |   Havasicakligi <= -9.915559: 2/15/2020 (2.0/1.0)
|   |   |   |   |   |   |   |   |   |   |   Havasicakligi > -9.915559: 2/14/2020 (2.0/0.0)
|   |   |   |   |   |   |   |   |   |   Havasicakligi > -8.531206: 1/26/2020 (3.0/0.0)
|   |   |   |   |   |   |   |   |   Bagilnem > 42.98078
|   |   |   |   |   |   |   |   |   |   Havasicakligi <= -3.917898
|   |   |   |   |   |   |   |   |   |   |   kabinsicakligi <= 18.11697: 2/18/2020 (5.0/0.0)
|   |   |   |   |   |   |   |   |   |   |   kabinsicakligi > 18.11697
|   |   |   |   |   |   |   |   |   |   |   |   kabinsicakligi <= 19.01983
|   |   |   |   |   |   |   |   |   |   |   |   |   SO2 <= 11.97742
|   |   |   |   |   |   |   |   |   |   |   |   |   |   PM10 <= 89.09348: 2/16/2020 (3.0/0.0)
|   |   |   |   |   |   |   |   |   |   |   |   |   |   PM10 > 89.09348: 2/18/2020 (3.0/0.0)
|   |   |   |   |   |   |   |   |   |   |   |   |   SO2 > 11.97742: 2/16/2020 (7.01/0.01)
|   |   |   |   |   |   |   |   |   |   |   |   kabinsicakligi > 19.01983: 1/26/2020 (2.0/1.0)
|   |   |   |   |   |   |   |   |   |   Havasicakligi > -3.917898: 2/15/2020 (2.0/0.0)
|   |   |   |   |   |   |   kabinsicakligi > 19.19234
|   |   |   |   |   |   |   |   PM10 <= 135.5092
|   |   |   |   |   |   |   |   |   Havasicakligi <= -5.715581: 2/13/2020 (2.0/1.0)
|   |   |   |   |   |   |   |   |   Havasicakligi > -5.715581: 2/17/2020 (8.01/2.01)
|   |   |   |   |   |   |   |   PM10 > 135.5092: 2/15/2020 (3.0/1.0)
|   |   |   |   |   |   Ruzgarhizi > 0.976014
|   |   |   |   |   |   |   Havasicakligi <= -6: 2/14/2020 (9.01/1.01)
|   |   |   |   |   |   |   Havasicakligi > -6
|   |   |   |   |   |   |   |   Ruzgarhizi <= 1.094236: 2/19/2020 (2.0/1.0)
|   |   |   |   |   |   |   |   Ruzgarhizi > 1.094236: 2/13/2020 (7.01/1.01)
|   |   |   |   |   Bagilnem > 46.48339
|   |   |   |   |   |   SO2 <= 11.80969
|   |   |   |   |   |   |   Havasicakligi <= 0.909362
|   |   |   |   |   |   |   |   PM10 <= 115.3168
|   |   |   |   |   |   |   |   |   Havasicakligi <= -0.782955
|   |   |   |   |   |   |   |   |   |   kabinsicakligi <= 18.1042: 1/22/2020 (4.01/1.01)
|   |   |   |   |   |   |   |   |   |   kabinsicakligi > 18.1042
|   |   |   |   |   |   |   |   |   |   |   SO2 <= 10.87044
|   |   |   |   |   |   |   |   |   |   |   |   kabinsicakligi <= 18.89234: 3/2/2020 (3.0/1.0)
|   |   |   |   |   |   |   |   |   |   |   |   kabinsicakligi > 18.89234
|   |   |   |   |   |   |   |   |   |   |   |   |   Bagilnem <= 47.83517: 2/27/2020 (5.0/1.0)
|   |   |   |   |   |   |   |   |   |   |   |   |   Bagilnem > 47.83517: 3/3/2020 (2.01/0.01)
|   |   |   |   |   |   |   |   |   |   |   SO2 > 10.87044: 2/26/2020 (4.01/1.01)
|   |   |   |   |   |   |   |   |   Havasicakligi > -0.782955
|   |   |   |   |   |   |   |   |   |   Ruzgarhizi <= 0.612694: 3/4/2020 (2.0/0.0)
|   |   |   |   |   |   |   |   |   |   Ruzgarhizi > 0.612694: 3/22/2020 (2.0/1.0)
|   |   |   |   |   |   |   |   PM10 > 115.3168
|   |   |   |   |   |   |   |   |   kabinsicakligi <= 19.42681: 2/19/2020 (5.01/0.01)
|   |   |   |   |   |   |   |   |   kabinsicakligi > 19.42681: 3/21/2020 (3.0/1.0)
|   |   |   |   |   |   |   Havasicakligi > 0.909362
|   |   |   |   |   |   |   |   kabinsicakligi <= 19.19703
|   |   |   |   |   |   |   |   |   Bagilnem <= 51.08967: 2/1/2020 (3.0/1.0)
|   |   |   |   |   |   |   |   |   Bagilnem > 51.08967: 2/25/2020 (3.01/2.01)
|   |   |   |   |   |   |   |   kabinsicakligi > 19.19703
|   |   |   |   |   |   |   |   |   PM10 <= 39.90665
|   |   |   |   |   |   |   |   |   |   Bagilnem <= 51.09864: 3/19/2020 (2.0/1.0)
|   |   |   |   |   |   |   |   |   |   Bagilnem > 51.09864
|   |   |   |   |   |   |   |   |   |   |   SO2 <= 9.544242: 3/5/2020 (2.0/1.0)
|   |   |   |   |   |   |   |   |   |   |   SO2 > 9.544242
|   |   |   |   |   |   |   |   |   |   |   |   Ruzgarhizi <= 0.778306: 3/31/2020 (2.0/1.0)
|   |   |   |   |   |   |   |   |   |   |   |   Ruzgarhizi > 0.778306: 2/22/2020 (4.01/1.01)
|   |   |   |   |   |   |   |   |   PM10 > 39.90665
|   |   |   |   |   |   |   |   |   |   PM10 <= 117.2752
|   |   |   |   |   |   |   |   |   |   |   Ruzgarhizi <= 0.688972: 2/24/2020 (3.0/1.0)
|   |   |   |   |   |   |   |   |   |   |   Ruzgarhizi > 0.688972: 2/23/2020 (7.01/3.01)
|   |   |   |   |   |   |   |   |   |   PM10 > 117.2752: 3/2/2020 (2.0/1.0)
|   |   |   |   |   |   SO2 > 11.80969
|   |   |   |   |   |   |   kabinsicakligi <= 18.30283
|   |   |   |   |   |   |   |   Ruzgarhizi <= 1.215403
|   |   |   |   |   |   |   |   |   Havasicakligi <= -0.031206
|   |   |   |   |   |   |   |   |   |   kabinsicakligi <= 17.50976: 1/27/2020 (2.0/0.0)
|   |   |   |   |   |   |   |   |   |   kabinsicakligi > 17.50976
|   |   |   |   |   |   |   |   |   |   |   Havasicakligi <= -4.873938: 2/17/2020 (3.0/1.0)
|   |   |   |   |   |   |   |   |   |   |   Havasicakligi > -4.873938: 2/18/2020 (3.0/0.0)
|   |   |   |   |   |   |   |   |   Havasicakligi > -0.031206: 2/2/2020 (5.0/1.0)
|   |   |   |   |   |   |   |   Ruzgarhizi > 1.215403
|   |   |   |   |   |   |   |   |   Bagilnem <= 52.07141: 2/12/2020 (3.0/1.0)
|   |   |   |   |   |   |   |   |   Bagilnem > 52.07141: 3/9/2020 (3.01/2.01)
|   |   |   |   |   |   |   kabinsicakligi > 18.30283
|   |   |   |   |   |   |   |   Ruzgarhizi <= 1.298833
|   |   |   |   |   |   |   |   |   SO2 <= 14.33858
|   |   |   |   |   |   |   |   |   |   Bagilnem <= 52.15575
|   |   |   |   |   |   |   |   |   |   |   Havasicakligi <= 0.108911
|   |   |   |   |   |   |   |   |   |   |   |   PM10 <= 96.40709: 2/15/2020 (3.0/1.0)
|   |   |   |   |   |   |   |   |   |   |   |   PM10 > 96.40709: 2/19/2020 (7.01/1.01)
|   |   |   |   |   |   |   |   |   |   |   Havasicakligi > 0.108911
|   |   |   |   |   |   |   |   |   |   |   |   SO2 <= 12.30166: 2/20/2020 (2.0/0.0)
|   |   |   |   |   |   |   |   |   |   |   |   SO2 > 12.30166: 3/3/2020 (3.0/1.0)
|   |   |   |   |   |   |   |   |   |   Bagilnem > 52.15575
|   |   |   |   |   |   |   |   |   |   |   Havasicakligi <= 1.329703
|   |   |   |   |   |   |   |   |   |   |   |   SO2 <= 14.08328: 3/4/2020 (3.0/1.0)
|   |   |   |   |   |   |   |   |   |   |   |   SO2 > 14.08328: 3/5/2020 (2.0/1.0)
|   |   |   |   |   |   |   |   |   |   |   Havasicakligi > 1.329703
|   |   |   |   |   |   |   |   |   |   |   |   kabinsicakligi <= 19.19688: 2/19/2020 (3.0/1.0)
|   |   |   |   |   |   |   |   |   |   |   |   kabinsicakligi > 19.19688: 2/23/2020 (5.0/1.0)
|   |   |   |   |   |   |   |   |   SO2 > 14.33858
|   |   |   |   |   |   |   |   |   |   Havasicakligi <= 1.571915
|   |   |   |   |   |   |   |   |   |   |   kabinsicakligi <= 19.19759
|   |   |   |   |   |   |   |   |   |   |   |   Bagilnem <= 52.38172
|   |   |   |   |   |   |   |   |   |   |   |   |   kabinsicakligi <= 19.00933: 2/16/2020 (8.01/2.01)
|   |   |   |   |   |   |   |   |   |   |   |   |   kabinsicakligi > 19.00933: 2/20/2020 (3.0/1.0)
|   |   |   |   |   |   |   |   |   |   |   |   Bagilnem > 52.38172: 3/3/2020 (3.0/1.0)
|   |   |   |   |   |   |   |   |   |   |   kabinsicakligi > 19.19759
|   |   |   |   |   |   |   |   |   |   |   |   SO2 <= 15.03292: 2/26/2020 (2.0/1.0)
|   |   |   |   |   |   |   |   |   |   |   |   SO2 > 15.03292
|   |   |   |   |   |   |   |   |   |   |   |   |   kabinsicakligi <= 19.4027
|   |   |   |   |   |   |   |   |   |   |   |   |   |   kabinsicakligi <= 19.2: 2/18/2020 (3.0/1.0)
|   |   |   |   |   |   |   |   |   |   |   |   |   |   kabinsicakligi > 19.2
|   |   |   |   |   |   |   |   |   |   |   |   |   |   |   PM10 <= 175.9362: 2/17/2020 (3.0/0.0)
|   |   |   |   |   |   |   |   |   |   |   |   |   |   |   PM10 > 175.9362: 2/18/2020 (3.0/1.0)
|   |   |   |   |   |   |   |   |   |   |   |   |   kabinsicakligi > 19.4027
|   |   |   |   |   |   |   |   |   |   |   |   |   |   Havasicakligi <= 0.682123: 2/25/2020 (2.0/1.0)
|   |   |   |   |   |   |   |   |   |   |   |   |   |   Havasicakligi > 0.682123: 2/27/2020 (2.0/0.0)
|   |   |   |   |   |   |   |   |   |   Havasicakligi > 1.571915
|   |   |   |   |   |   |   |   |   |   |   PM10 <= 100.3739: 2/16/2020 (4.0/1.0)
|   |   |   |   |   |   |   |   |   |   |   PM10 > 100.3739: 2/19/2020 (6.01/0.01)
|   |   |   |   |   |   |   |   Ruzgarhizi > 1.298833
|   |   |   |   |   |   |   |   |   PM10 <= 66.71994: 2/12/2020 (8.03/1.03)
|   |   |   |   |   |   |   |   |   PM10 > 66.71994
|   |   |   |   |   |   |   |   |   |   Bagilnem <= 52.63825: 2/15/2020 (3.0/0.0)
|   |   |   |   |   |   |   |   |   |   Bagilnem > 52.63825
|   |   |   |   |   |   |   |   |   |   |   kabinsicakligi <= 18.99804: 2/18/2020 (3.01/0.01)
|   |   |   |   |   |   |   |   |   |   |   kabinsicakligi > 18.99804: 2/16/2020 (5.02/1.02)
|   |   |   |   SO2 > 26.2033
|   |   |   |   |   PM10 <= 127.8952: 2/20/2020 (13.02/0.02)
|   |   |   |   |   PM10 > 127.8952
|   |   |   |   |   |   Havasicakligi <= -0.709348: 2/21/2020 (8.01/0.01)
|   |   |   |   |   |   Havasicakligi > -0.709348
|   |   |   |   |   |   |   Bagilnem <= 50.20156: 2/20/2020 (5.0/1.0)
|   |   |   |   |   |   |   Bagilnem > 50.20156: 2/21/2020 (3.01/0.01)
|   |   Havasicakligi > 2.875036
|   |   |   SO2 <= 7.360454
|   |   |   |   SO2 <= 5.182086
|   |   |   |   |   PM10 <= 23.84419
|   |   |   |   |   |   Bagilnem <= 55.11483
|   |   |   |   |   |   |   Ruzgarhizi <= 2.049292: 3/29/2020 (2.44/1.44)
|   |   |   |   |   |   |   Ruzgarhizi > 2.049292: 3/17/2020 (4.59/0.59)
|   |   |   |   |   |   Bagilnem > 55.11483
|   |   |   |   |   |   |   kabinsicakligi <= 19: 2/7/2020 (3.37/2.07)
|   |   |   |   |   |   |   kabinsicakligi > 19
|   |   |   |   |   |   |   |   SO2 <= 4.924828
|   |   |   |   |   |   |   |   |   Ruzgarhizi <= 1.333458
|   |   |   |   |   |   |   |   |   |   Havasicakligi <= 7.6: 3/29/2020 (7.01/0.01)
|   |   |   |   |   |   |   |   |   |   Havasicakligi > 7.6: 3/14/2020 (9.01/2.01)
|   |   |   |   |   |   |   |   |   Ruzgarhizi > 1.333458
|   |   |   |   |   |   |   |   |   |   SO2 <= 4.51457: 3/29/2020 (9.45/0.45)
|   |   |   |   |   |   |   |   |   |   SO2 > 4.51457
|   |   |   |   |   |   |   |   |   |   |   PM10 <= 13.03112: 3/28/2020 (4.5/0.5)
|   |   |   |   |   |   |   |   |   |   |   PM10 > 13.03112: 3/29/2020 (3.38/0.38)
|   |   |   |   |   |   |   |   SO2 > 4.924828
|   |   |   |   |   |   |   |   |   Havasicakligi <= 7.641584: 3/28/2020 (4.01/0.01)
|   |   |   |   |   |   |   |   |   Havasicakligi > 7.641584: 3/14/2020 (3.0/1.0)
|   |   |   |   |   PM10 > 23.84419
|   |   |   |   |   |   Ruzgarhizi <= 1.112417
|   |   |   |   |   |   |   Havasicakligi <= 8.191076
|   |   |   |   |   |   |   |   kabinsicakligi <= 19.4: 3/26/2020 (6.01/2.01)
|   |   |   |   |   |   |   |   kabinsicakligi > 19.4
|   |   |   |   |   |   |   |   |   Bagilnem <= 53.76672: 3/26/2020 (3.0/1.0)
|   |   |   |   |   |   |   |   |   Bagilnem > 53.76672: 3/15/2020 (7.01/0.01)
|   |   |   |   |   |   |   Havasicakligi > 8.191076
|   |   |   |   |   |   |   |   SO2 <= 4.0148: 3/15/2020 (3.0/0.0)
|   |   |   |   |   |   |   |   SO2 > 4.0148
|   |   |   |   |   |   |   |   |   Ruzgarhizi <= 0.994569: 3/14/2020 (11.01/1.01)
|   |   |   |   |   |   |   |   |   Ruzgarhizi > 0.994569: 3/26/2020 (2.0/0.0)
|   |   |   |   |   |   Ruzgarhizi > 1.112417
|   |   |   |   |   |   |   Havasicakligi <= 8.333192: 2/7/2020 (4.65/0.69)
|   |   |   |   |   |   |   Havasicakligi > 8.333192
|   |   |   |   |   |   |   |   SO2 <= 3.898603: 3/15/2020 (6.25/0.25)
|   |   |   |   |   |   |   |   SO2 > 3.898603
|   |   |   |   |   |   |   |   |   kabinsicakligi <= 19.19717: 3/16/2020 (4.01/0.01)
|   |   |   |   |   |   |   |   |   kabinsicakligi > 19.19717
|   |   |   |   |   |   |   |   |   |   Bagilnem <= 64.17155
|   |   |   |   |   |   |   |   |   |   |   PM10 <= 54.51136
|   |   |   |   |   |   |   |   |   |   |   |   SO2 <= 4.4546: 3/31/2020 (3.07/1.01)
|   |   |   |   |   |   |   |   |   |   |   |   SO2 > 4.4546: 3/28/2020 (9.2/2.2)
|   |   |   |   |   |   |   |   |   |   |   PM10 > 54.51136: 3/26/2020 (2.0/0.0)
|   |   |   |   |   |   |   |   |   |   Bagilnem > 64.17155: 3/26/2020 (5.0/1.0)
|   |   |   |   SO2 > 5.182086
|   |   |   |   |   Bagilnem <= 56.60033
|   |   |   |   |   |   kabinsicakligi <= 19.29804
|   |   |   |   |   |   |   Ruzgarhizi <= 1.792736
|   |   |   |   |   |   |   |   PM10 <= 29.64255: 3/1/2020 (5.0/0.0)
|   |   |   |   |   |   |   |   PM10 > 29.64255
|   |   |   |   |   |   |   |   |   PM10 <= 37.30595: 3/8/2020 (3.0/1.0)
|   |   |   |   |   |   |   |   |   PM10 > 37.30595
|   |   |   |   |   |   |   |   |   |   PM10 <= 45.40793: 3/19/2020 (2.0/1.0)
|   |   |   |   |   |   |   |   |   |   PM10 > 45.40793: 3/11/2020 (2.0/1.0)
|   |   |   |   |   |   |   Ruzgarhizi > 1.792736
|   |   |   |   |   |   |   |   Bagilnem <= 53.21383: 3/1/2020 (2.0/1.0)
|   |   |   |   |   |   |   |   Bagilnem > 53.21383: 2/25/2020 (10.01/1.01)
|   |   |   |   |   |   kabinsicakligi > 19.29804
|   |   |   |   |   |   |   Ruzgarhizi <= 1.044986
|   |   |   |   |   |   |   |   SO2 <= 6.204647
|   |   |   |   |   |   |   |   |   PM10 <= 22.3966
|   |   |   |   |   |   |   |   |   |   PM10 <= 13.34326: 3/25/2020 (2.0/0.0)
|   |   |   |   |   |   |   |   |   |   PM10 > 13.34326: 3/29/2020 (2.0/0.0)
|   |   |   |   |   |   |   |   |   PM10 > 22.3966
|   |   |   |   |   |   |   |   |   |   SO2 <= 5.857088: 3/26/2020 (5.0/1.0)
|   |   |   |   |   |   |   |   |   |   SO2 > 5.857088
|   |   |   |   |   |   |   |   |   |   |   Havasicakligi <= 4.809335: 3/30/2020 (3.0/0.0)
|   |   |   |   |   |   |   |   |   |   |   Havasicakligi > 4.809335: 3/27/2020 (2.0/1.0)
|   |   |   |   |   |   |   |   SO2 > 6.204647
|   |   |   |   |   |   |   |   |   Bagilnem <= 55.46253
|   |   |   |   |   |   |   |   |   |   PM10 <= 51.83286
|   |   |   |   |   |   |   |   |   |   |   PM10 <= 38.28936: 3/20/2020 (2.0/1.0)
|   |   |   |   |   |   |   |   |   |   |   PM10 > 38.28936: 3/22/2020 (2.0/1.0)
|   |   |   |   |   |   |   |   |   |   PM10 > 51.83286
|   |   |   |   |   |   |   |   |   |   |   kabinsicakligi <= 19.42681: 3/11/2020 (5.0/1.0)
|   |   |   |   |   |   |   |   |   |   |   kabinsicakligi > 19.42681: 3/31/2020 (2.0/1.0)
|   |   |   |   |   |   |   |   |   Bagilnem > 55.46253
|   |   |   |   |   |   |   |   |   |   kabinsicakligi <= 19.4027: 3/12/2020 (3.0/1.0)
|   |   |   |   |   |   |   |   |   |   kabinsicakligi > 19.4027: 3/27/2020 (2.0/1.0)
|   |   |   |   |   |   |   Ruzgarhizi > 1.044986
|   |   |   |   |   |   |   |   Ruzgarhizi <= 2.352236
|   |   |   |   |   |   |   |   |   PM10 <= 12.02553: 3/25/2020 (3.0/0.0)
|   |   |   |   |   |   |   |   |   PM10 > 12.02553
|   |   |   |   |   |   |   |   |   |   kabinsicakligi <= 19.40509
|   |   |   |   |   |   |   |   |   |   |   SO2 <= 6.820363: 3/20/2020 (7.01/1.01)
|   |   |   |   |   |   |   |   |   |   |   SO2 > 6.820363: 3/17/2020 (3.0/0.0)
|   |   |   |   |   |   |   |   |   |   kabinsicakligi > 19.40509: 3/21/2020 (4.0/1.0)
|   |   |   |   |   |   |   |   Ruzgarhizi > 2.352236: 3/1/2020 (3.0/1.0)
|   |   |   |   |   Bagilnem > 56.60033
|   |   |   |   |   |   Bagilnem <= 61.61856
|   |   |   |   |   |   |   Ruzgarhizi <= 1.495986
|   |   |   |   |   |   |   |   kabinsicakligi <= 19.30269
|   |   |   |   |   |   |   |   |   kabinsicakligi <= 19.19759
|   |   |   |   |   |   |   |   |   |   Havasicakligi <= 8.291077: 3/2/2020 (3.0/1.0)
|   |   |   |   |   |   |   |   |   |   Havasicakligi > 8.291077
|   |   |   |   |   |   |   |   |   |   |   Ruzgarhizi <= 1.387222: 3/31/2020 (2.0/0.0)
|   |   |   |   |   |   |   |   |   |   |   Ruzgarhizi > 1.387222: 2/26/2020 (2.0/0.0)
|   |   |   |   |   |   |   |   |   kabinsicakligi > 19.19759
|   |   |   |   |   |   |   |   |   |   Havasicakligi <= 9.215559: 3/31/2020 (4.0/1.0)
|   |   |   |   |   |   |   |   |   |   Havasicakligi > 9.215559
|   |   |   |   |   |   |   |   |   |   |   SO2 <= 6.825981
|   |   |   |   |   |   |   |   |   |   |   |   Bagilnem <= 60.28597
|   |   |   |   |   |   |   |   |   |   |   |   |   SO2 <= 6.556811: 3/21/2020 (2.0/0.0)
|   |   |   |   |   |   |   |   |   |   |   |   |   SO2 > 6.556811: 3/13/2020 (3.0/0.0)
|   |   |   |   |   |   |   |   |   |   |   |   Bagilnem > 60.28597
|   |   |   |   |   |   |   |   |   |   |   |   |   kabinsicakligi <= 19.2: 3/24/2020 (4.0/1.0)
|   |   |   |   |   |   |   |   |   |   |   |   |   kabinsicakligi > 19.2: 3/2/2020 (2.0/0.0)
|   |   |   |   |   |   |   |   |   |   |   SO2 > 6.825981: 3/13/2020 (19.02/7.02)
|   |   |   |   |   |   |   |   kabinsicakligi > 19.30269
|   |   |   |   |   |   |   |   |   SO2 <= 5.933986
|   |   |   |   |   |   |   |   |   |   kabinsicakligi <= 19.39518: 3/24/2020 (3.0/1.0)
|   |   |   |   |   |   |   |   |   |   kabinsicakligi > 19.39518
|   |   |   |   |   |   |   |   |   |   |   Ruzgarhizi <= 1.336028
|   |   |   |   |   |   |   |   |   |   |   |   kabinsicakligi <= 19.5
|   |   |   |   |   |   |   |   |   |   |   |   |   PM10 <= 22.97155
|   |   |   |   |   |   |   |   |   |   |   |   |   |   SO2 <= 5.613235: 3/16/2020 (5.0/1.0)
|   |   |   |   |   |   |   |   |   |   |   |   |   |   SO2 > 5.613235: 3/27/2020 (2.0/1.0)
|   |   |   |   |   |   |   |   |   |   |   |   |   PM10 > 22.97155: 3/27/2020 (10.01/2.01)
|   |   |   |   |   |   |   |   |   |   |   |   kabinsicakligi > 19.5: 3/28/2020 (3.0/0.0)
|   |   |   |   |   |   |   |   |   |   |   Ruzgarhizi > 1.336028: 4/1/2020 (3.0/1.0)
|   |   |   |   |   |   |   |   |   SO2 > 5.933986
|   |   |   |   |   |   |   |   |   |   SO2 <= 6.902448
|   |   |   |   |   |   |   |   |   |   |   kabinsicakligi <= 19.40284
|   |   |   |   |   |   |   |   |   |   |   |   Havasicakligi <= 6.857001: 3/27/2020 (3.0/1.0)
|   |   |   |   |   |   |   |   |   |   |   |   Havasicakligi > 6.857001
|   |   |   |   |   |   |   |   |   |   |   |   |   Bagilnem <= 58.19281
|   |   |   |   |   |   |   |   |   |   |   |   |   |   SO2 <= 6.389484
|   |   |   |   |   |   |   |   |   |   |   |   |   |   |   Havasicakligi <= 7.931425
|   |   |   |   |   |   |   |   |   |   |   |   |   |   |   |   PM10 <= 23: 3/25/2020 (2.0/0.0)
|   |   |   |   |   |   |   |   |   |   |   |   |   |   |   |   PM10 > 23: 3/24/2020 (2.0/0.0)
|   |   |   |   |   |   |   |   |   |   |   |   |   |   |   Havasicakligi > 7.931425: 3/25/2020 (4.0/1.0)
|   |   |   |   |   |   |   |   |   |   |   |   |   |   SO2 > 6.389484
|   |   |   |   |   |   |   |   |   |   |   |   |   |   |   Ruzgarhizi <= 0.998181: 3/12/2020 (3.0/0.0)
|   |   |   |   |   |   |   |   |   |   |   |   |   |   |   Ruzgarhizi > 0.998181: 3/24/2020 (4.0/0.0)
|   |   |   |   |   |   |   |   |   |   |   |   |   Bagilnem > 58.19281
|   |   |   |   |   |   |   |   |   |   |   |   |   |   kabinsicakligi <= 19.33277: 3/25/2020 (2.0/0.0)
|   |   |   |   |   |   |   |   |   |   |   |   |   |   kabinsicakligi > 19.33277: 3/21/2020 (3.0/2.0)
|   |   |   |   |   |   |   |   |   |   |   kabinsicakligi > 19.40284
|   |   |   |   |   |   |   |   |   |   |   |   Ruzgarhizi <= 1.171486: 3/27/2020 (12.01/3.01)
|   |   |   |   |   |   |   |   |   |   |   |   Ruzgarhizi > 1.171486: 3/28/2020 (2.0/1.0)
|   |   |   |   |   |   |   |   |   |   SO2 > 6.902448
|   |   |   |   |   |   |   |   |   |   |   Bagilnem <= 58.263
|   |   |   |   |   |   |   |   |   |   |   |   Havasicakligi <= 7.513706: 3/24/2020 (2.0/0.0)
|   |   |   |   |   |   |   |   |   |   |   |   Havasicakligi > 7.513706: 3/30/2020 (3.0/2.0)
|   |   |   |   |   |   |   |   |   |   |   Bagilnem > 58.263
|   |   |   |   |   |   |   |   |   |   |   |   PM10 <= 46.40793: 3/13/2020 (6.01/0.01)
|   |   |   |   |   |   |   |   |   |   |   |   PM10 > 46.40793: 3/25/2020 (2.0/1.0)
|   |   |   |   |   |   |   Ruzgarhizi > 1.495986
|   |   |   |   |   |   |   |   Ruzgarhizi <= 3.012681
|   |   |   |   |   |   |   |   |   kabinsicakligi <= 19.10283
|   |   |   |   |   |   |   |   |   |   Ruzgarhizi <= 1.641389
|   |   |   |   |   |   |   |   |   |   |   PM10 <= 25.03116: 2/26/2020 (2.0/0.0)
|   |   |   |   |   |   |   |   |   |   |   PM10 > 25.03116: 3/2/2020 (2.0/0.0)
|   |   |   |   |   |   |   |   |   |   Ruzgarhizi > 1.641389
|   |   |   |   |   |   |   |   |   |   |   Havasicakligi <= 9.788118: 3/21/2020 (2.42/0.42)
|   |   |   |   |   |   |   |   |   |   |   Havasicakligi > 9.788118: 3/6/2020 (4.0/0.0)
|   |   |   |   |   |   |   |   |   kabinsicakligi > 19.10283
|   |   |   |   |   |   |   |   |   |   PM10 <= 30.3272
|   |   |   |   |   |   |   |   |   |   |   Havasicakligi <= 7.904836: 3/25/2020 (3.0/1.0)
|   |   |   |   |   |   |   |   |   |   |   Havasicakligi > 7.904836
|   |   |   |   |   |   |   |   |   |   |   |   SO2 <= 5.87992
|   |   |   |   |   |   |   |   |   |   |   |   |   kabinsicakligi <= 19.2
|   |   |   |   |   |   |   |   |   |   |   |   |   |   PM10 <= 16.60284: 3/30/2020 (2.0/0.0)
|   |   |   |   |   |   |   |   |   |   |   |   |   |   PM10 > 16.60284: 3/21/2020 (2.0/0.0)
|   |   |   |   |   |   |   |   |   |   |   |   |   kabinsicakligi > 19.2: 3/16/2020 (5.0/0.0)
|   |   |   |   |   |   |   |   |   |   |   |   SO2 > 5.87992: 3/30/2020 (7.01/0.01)
|   |   |   |   |   |   |   |   |   |   PM10 > 30.3272
|   |   |   |   |   |   |   |   |   |   |   kabinsicakligi <= 19.29519
|   |   |   |   |   |   |   |   |   |   |   |   PM10 <= 48.06931
|   |   |   |   |   |   |   |   |   |   |   |   |   SO2 <= 6.183094: 3/25/2020 (3.0/1.0)
|   |   |   |   |   |   |   |   |   |   |   |   |   SO2 > 6.183094: 3/16/2020 (2.0/1.0)
|   |   |   |   |   |   |   |   |   |   |   |   PM10 > 48.06931: 3/6/2020 (2.0/1.0)
|   |   |   |   |   |   |   |   |   |   |   kabinsicakligi > 19.29519
|   |   |   |   |   |   |   |   |   |   |   |   Havasicakligi <= 10.79816
|   |   |   |   |   |   |   |   |   |   |   |   |   SO2 <= 6.159001: 3/28/2020 (2.0/0.0)
|   |   |   |   |   |   |   |   |   |   |   |   |   SO2 > 6.159001: 3/30/2020 (2.0/1.0)
|   |   |   |   |   |   |   |   |   |   |   |   Havasicakligi > 10.79816: 3/31/2020 (4.0/1.0)
|   |   |   |   |   |   |   |   Ruzgarhizi > 3.012681
|   |   |   |   |   |   |   |   |   Bagilnem <= 59.36592: 3/1/2020 (6.15/0.15)
|   |   |   |   |   |   |   |   |   Bagilnem > 59.36592
|   |   |   |   |   |   |   |   |   |   PM10 <= 41.20821: 3/30/2020 (2.0/1.0)
|   |   |   |   |   |   |   |   |   |   PM10 > 41.20821: 2/24/2020 (2.0/0.0)
|   |   |   |   |   |   Bagilnem > 61.61856
|   |   |   |   |   |   |   SO2 <= 6.427619
|   |   |   |   |   |   |   |   Havasicakligi <= 17.54531
|   |   |   |   |   |   |   |   |   PM10 <= 28.8922
|   |   |   |   |   |   |   |   |   |   Bagilnem <= 65.56422
|   |   |   |   |   |   |   |   |   |   |   Bagilnem <= 63.01892: 3/16/2020 (3.0/1.0)
|   |   |   |   |   |   |   |   |   |   |   Bagilnem > 63.01892: 3/22/2020 (6.01/1.01)
|   |   |   |   |   |   |   |   |   |   Bagilnem > 65.56422: 3/3/2020 (3.0/1.0)
|   |   |   |   |   |   |   |   |   PM10 > 28.8922
|   |   |   |   |   |   |   |   |   |   Bagilnem <= 63.22925
|   |   |   |   |   |   |   |   |   |   |   kabinsicakligi <= 19.22462: 3/24/2020 (7.49/1.49)
|   |   |   |   |   |   |   |   |   |   |   kabinsicakligi > 19.22462: 3/23/2020 (3.0/0.0)
|   |   |   |   |   |   |   |   |   |   Bagilnem > 63.22925
|   |   |   |   |   |   |   |   |   |   |   kabinsicakligi <= 19.42681
|   |   |   |   |   |   |   |   |   |   |   |   SO2 <= 5.564761: 3/25/2020 (4.0/0.0)
|   |   |   |   |   |   |   |   |   |   |   |   SO2 > 5.564761
|   |   |   |   |   |   |   |   |   |   |   |   |   PM10 <= 35.31117: 3/4/2020 (2.0/0.0)
|   |   |   |   |   |   |   |   |   |   |   |   |   PM10 > 35.31117: 3/23/2020 (5.0/1.0)
|   |   |   |   |   |   |   |   |   |   |   kabinsicakligi > 19.42681: 3/3/2020 (2.0/0.0)
|   |   |   |   |   |   |   |   Havasicakligi > 17.54531
|   |   |   |   |   |   |   |   |   PM10 <= 50.66195: 3/8/2020 (4.0/0.0)
|   |   |   |   |   |   |   |   |   PM10 > 50.66195: 3/9/2020 (2.0/0.0)
|   |   |   |   |   |   |   SO2 > 6.427619
|   |   |   |   |   |   |   |   kabinsicakligi <= 19.19731
|   |   |   |   |   |   |   |   |   Ruzgarhizi <= 2.115695
|   |   |   |   |   |   |   |   |   |   PM10 <= 44.87553: 3/8/2020 (3.0/1.0)
|   |   |   |   |   |   |   |   |   |   PM10 > 44.87553
|   |   |   |   |   |   |   |   |   |   |   Ruzgarhizi <= 1.592778: 3/11/2020 (2.0/1.0)
|   |   |   |   |   |   |   |   |   |   |   Ruzgarhizi > 1.592778: 3/12/2020 (2.0/0.0)
|   |   |   |   |   |   |   |   |   Ruzgarhizi > 2.115695: 3/10/2020 (7.01/1.01)
|   |   |   |   |   |   |   |   kabinsicakligi > 19.19731
|   |   |   |   |   |   |   |   |   Havasicakligi <= 12.61539: 3/6/2020 (3.36/1.36)
|   |   |   |   |   |   |   |   |   Havasicakligi > 12.61539
|   |   |   |   |   |   |   |   |   |   PM10 <= 31.07638: 3/6/2020 (3.0/1.0)
|   |   |   |   |   |   |   |   |   |   PM10 > 31.07638: 3/5/2020 (10.01/4.01)
|   |   |   SO2 > 7.360454
|   |   |   |   kabinsicakligi <= 19.0051
|   |   |   |   |   kabinsicakligi <= 18.5958
|   |   |   |   |   |   Ruzgarhizi <= 1.284097
|   |   |   |   |   |   |   Bagilnem <= 58.94444
|   |   |   |   |   |   |   |   SO2 <= 12.3786: 3/8/2020 (2.05/1.05)
|   |   |   |   |   |   |   |   SO2 > 12.3786: 1/26/2020 (2.0/1.0)
|   |   |   |   |   |   |   Bagilnem > 58.94444: 3/9/2020 (4.0/0.0)
|   |   |   |   |   |   Ruzgarhizi > 1.284097: 2/4/2020 (13.44/2.01)
|   |   |   |   |   kabinsicakligi > 18.5958
|   |   |   |   |   |   PM10 <= 35.88684: 3/7/2020 (17.87/1.82)
|   |   |   |   |   |   PM10 > 35.88684
|   |   |   |   |   |   |   Havasicakligi <= 12.69518
|   |   |   |   |   |   |   |   SO2 <= 13.15293
|   |   |   |   |   |   |   |   |   kabinsicakligi <= 18.80566: 2/4/2020 (2.23/1.0)
|   |   |   |   |   |   |   |   |   kabinsicakligi > 18.80566
|   |   |   |   |   |   |   |   |   |   kabinsicakligi <= 19.00182
|   |   |   |   |   |   |   |   |   |   |   SO2 <= 9.290568: 2/27/2020 (3.02/1.02)
|   |   |   |   |   |   |   |   |   |   |   SO2 > 9.290568: 3/6/2020 (4.01/1.01)
|   |   |   |   |   |   |   |   |   |   kabinsicakligi > 19.00182: 3/6/2020 (2.01/1.01)
|   |   |   |   |   |   |   |   SO2 > 13.15293
|   |   |   |   |   |   |   |   |   Ruzgarhizi <= 1.442361: 3/9/2020 (3.0/2.0)
|   |   |   |   |   |   |   |   |   Ruzgarhizi > 1.442361: 2/17/2020 (2.0/0.0)
|   |   |   |   |   |   |   Havasicakligi > 12.69518
|   |   |   |   |   |   |   |   PM10 <= 64.55728: 3/9/2020 (5.01/0.01)
|   |   |   |   |   |   |   |   PM10 > 64.55728: 3/10/2020 (7.02/0.02)
|   |   |   |   kabinsicakligi > 19.0051
|   |   |   |   |   SO2 <= 11.91405
|   |   |   |   |   |   PM10 <= 37.888852
|   |   |   |   |   |   |   Havasicakligi <= 8.697021
|   |   |   |   |   |   |   |   PM10 <= 33.148296
|   |   |   |   |   |   |   |   |   kabinsicakligi <= 19.2
|   |   |   |   |   |   |   |   |   |   SO2 <= 9.112391: 2/29/2020 (7.04/2.04)
|   |   |   |   |   |   |   |   |   |   SO2 > 9.112391: 2/22/2020 (12.02/0.02)
|   |   |   |   |   |   |   |   |   kabinsicakligi > 19.2
|   |   |   |   |   |   |   |   |   |   Bagilnem <= 55.3773: 2/25/2020 (8.03/2.03)
|   |   |   |   |   |   |   |   |   |   Bagilnem > 55.3773
|   |   |   |   |   |   |   |   |   |   |   SO2 <= 8.936328: 2/22/2020 (5.01/2.01)
|   |   |   |   |   |   |   |   |   |   |   SO2 > 8.936328: 2/29/2020 (6.01/0.01)
|   |   |   |   |   |   |   |   PM10 > 33.148296
|   |   |   |   |   |   |   |   |   PM10 <= 34.68511
|   |   |   |   |   |   |   |   |   |   SO2 <= 9.632509: 3/7/2020 (7.22/0.02)
|   |   |   |   |   |   |   |   |   |   SO2 > 9.632509: 2/29/2020 (2.0/1.0)
|   |   |   |   |   |   |   |   |   PM10 > 34.68511
|   |   |   |   |   |   |   |   |   |   Bagilnem <= 55.89392
|   |   |   |   |   |   |   |   |   |   |   Ruzgarhizi <= 0.866972: 3/8/2020 (3.0/1.0)
|   |   |   |   |   |   |   |   |   |   |   Ruzgarhizi > 0.866972: 2/28/2020 (2.01/0.01)
|   |   |   |   |   |   |   |   |   |   Bagilnem > 55.89392: 2/29/2020 (3.01/0.01)
|   |   |   |   |   |   |   Havasicakligi > 8.697021
|   |   |   |   |   |   |   |   Bagilnem <= 61.67464
|   |   |   |   |   |   |   |   |   Bagilnem <= 59.14992
|   |   |   |   |   |   |   |   |   |   kabinsicakligi <= 19.22462: 3/6/2020 (4.08/1.08)
|   |   |   |   |   |   |   |   |   |   kabinsicakligi > 19.22462: 3/1/2020 (2.04/1.04)
|   |   |   |   |   |   |   |   |   Bagilnem > 59.14992
|   |   |   |   |   |   |   |   |   |   PM10 <= 32.929032: 2/23/2020 (6.01/1.01)
|   |   |   |   |   |   |   |   |   |   PM10 > 32.929032: 3/6/2020 (3.0/1.0)
|   |   |   |   |   |   |   |   Bagilnem > 61.67464
|   |   |   |   |   |   |   |   |   Ruzgarhizi <= 1.276847: 3/22/2020 (2.0/1.0)
|   |   |   |   |   |   |   |   |   Ruzgarhizi > 1.276847: 2/28/2020 (3.0/0.0)
|   |   |   |   |   |   PM10 > 37.888852
|   |   |   |   |   |   |   Havasicakligi <= 12.54043
|   |   |   |   |   |   |   |   kabinsicakligi <= 19.4
|   |   |   |   |   |   |   |   |   Bagilnem <= 56.89511
|   |   |   |   |   |   |   |   |   |   PM10 <= 51.83286
|   |   |   |   |   |   |   |   |   |   |   kabinsicakligi <= 19.39759
|   |   |   |   |   |   |   |   |   |   |   |   Havasicakligi <= 3.831117: 3/1/2020 (4.02/1.02)
|   |   |   |   |   |   |   |   |   |   |   |   Havasicakligi > 3.831117: 3/5/2020 (6.02/1.02)
|   |   |   |   |   |   |   |   |   |   |   kabinsicakligi > 19.39759
|   |   |   |   |   |   |   |   |   |   |   |   Bagilnem <= 53.35842: 2/24/2020 (2.01/0.01)
|   |   |   |   |   |   |   |   |   |   |   |   Bagilnem > 53.35842: 3/9/2020 (2.0/1.0)
|   |   |   |   |   |   |   |   |   |   PM10 > 51.83286
|   |   |   |   |   |   |   |   |   |   |   kabinsicakligi <= 19.39759
|   |   |   |   |   |   |   |   |   |   |   |   PM10 <= 83.88669
|   |   |   |   |   |   |   |   |   |   |   |   |   SO2 <= 9.090867: 2/25/2020 (3.04/1.04)
|   |   |   |   |   |   |   |   |   |   |   |   |   SO2 > 9.090867
|   |   |   |   |   |   |   |   |   |   |   |   |   |   SO2 <= 10.30684: 2/28/2020 (4.0/0.0)
|   |   |   |   |   |   |   |   |   |   |   |   |   |   SO2 > 10.30684
|   |   |   |   |   |   |   |   |   |   |   |   |   |   |   Havasicakligi <= 4.88925: 2/28/2020 (2.0/1.0)
|   |   |   |   |   |   |   |   |   |   |   |   |   |   |   Havasicakligi > 4.88925: 2/25/2020 (3.0/0.0)
|   |   |   |   |   |   |   |   |   |   |   |   PM10 > 83.88669: 3/3/2020 (3.01/1.01)
|   |   |   |   |   |   |   |   |   |   |   kabinsicakligi > 19.39759
|   |   |   |   |   |   |   |   |   |   |   |   Ruzgarhizi <= 0.814278: 2/24/2020 (2.0/0.0)
|   |   |   |   |   |   |   |   |   |   |   |   Ruzgarhizi > 0.814278: 3/12/2020 (2.01/1.01)
|   |   |   |   |   |   |   |   |   Bagilnem > 56.89511
|   |   |   |   |   |   |   |   |   |   Ruzgarhizi <= 1.195181
|   |   |   |   |   |   |   |   |   |   |   kabinsicakligi <= 19.22462
|   |   |   |   |   |   |   |   |   |   |   |   SO2 <= 7.869939: 3/24/2020 (2.0/1.0)
|   |   |   |   |   |   |   |   |   |   |   |   SO2 > 7.869939: 3/22/2020 (3.0/1.0)
|   |   |   |   |   |   |   |   |   |   |   kabinsicakligi > 19.22462
|   |   |   |   |   |   |   |   |   |   |   |   Havasicakligi <= 7.168839
|   |   |   |   |   |   |   |   |   |   |   |   |   Ruzgarhizi <= 0.970264: 3/5/2020 (2.0/0.0)
|   |   |   |   |   |   |   |   |   |   |   |   |   Ruzgarhizi > 0.970264: 3/30/2020 (2.0/1.0)
|   |   |   |   |   |   |   |   |   |   |   |   Havasicakligi > 7.168839
|   |   |   |   |   |   |   |   |   |   |   |   |   Havasicakligi <= 10.89378: 3/11/2020 (5.0/1.0)
|   |   |   |   |   |   |   |   |   |   |   |   |   Havasicakligi > 10.89378: 3/12/2020 (2.0/1.0)
|   |   |   |   |   |   |   |   |   |   Ruzgarhizi > 1.195181
|   |   |   |   |   |   |   |   |   |   |   PM10 <= 82.94051
|   |   |   |   |   |   |   |   |   |   |   |   Havasicakligi <= 10.20297
|   |   |   |   |   |   |   |   |   |   |   |   |   kabinsicakligi <= 19.19759: 2/27/2020 (5.01/2.01)
|   |   |   |   |   |   |   |   |   |   |   |   |   kabinsicakligi > 19.19759: 2/24/2020 (5.01/0.01)
|   |   |   |   |   |   |   |   |   |   |   |   Havasicakligi > 10.20297
|   |   |   |   |   |   |   |   |   |   |   |   |   PM10 <= 66.26771: 2/28/2020 (6.01/1.01)
|   |   |   |   |   |   |   |   |   |   |   |   |   PM10 > 66.26771: 2/27/2020 (2.0/0.0)
|   |   |   |   |   |   |   |   |   |   |   PM10 > 82.94051
|   |   |   |   |   |   |   |   |   |   |   |   Ruzgarhizi <= 1.641389: 3/24/2020 (3.0/2.0)
|   |   |   |   |   |   |   |   |   |   |   |   Ruzgarhizi > 1.641389: 2/28/2020 (3.01/1.01)
|   |   |   |   |   |   |   |   kabinsicakligi > 19.4
|   |   |   |   |   |   |   |   |   PM10 <= 65.36827
|   |   |   |   |   |   |   |   |   |   SO2 <= 8.788162: 3/30/2020 (3.02/2.02)
|   |   |   |   |   |   |   |   |   |   SO2 > 8.788162
|   |   |   |   |   |   |   |   |   |   |   Ruzgarhizi <= 1.094458
|   |   |   |   |   |   |   |   |   |   |   |   PM10 <= 57.46383: 2/23/2020 (2.0/0.0)
|   |   |   |   |   |   |   |   |   |   |   |   PM10 > 57.46383: 2/29/2020 (2.0/1.0)
|   |   |   |   |   |   |   |   |   |   |   Ruzgarhizi > 1.094458: 2/24/2020 (5.01/1.01)
|   |   |   |   |   |   |   |   |   PM10 > 65.36827
|   |   |   |   |   |   |   |   |   |   kabinsicakligi <= 19.49236: 3/22/2020 (4.01/1.01)
|   |   |   |   |   |   |   |   |   |   kabinsicakligi > 19.49236
|   |   |   |   |   |   |   |   |   |   |   Ruzgarhizi <= 0.751819: 2/23/2020 (3.0/0.0)
|   |   |   |   |   |   |   |   |   |   |   Ruzgarhizi > 0.751819
|   |   |   |   |   |   |   |   |   |   |   |   SO2 <= 10.16928
|   |   |   |   |   |   |   |   |   |   |   |   |   PM10 <= 79.63084: 3/31/2020 (2.01/1.01)
|   |   |   |   |   |   |   |   |   |   |   |   |   PM10 > 79.63084: 3/23/2020 (3.01/1.01)
|   |   |   |   |   |   |   |   |   |   |   |   SO2 > 10.16928: 3/11/2020 (2.0/0.0)
|   |   |   |   |   |   |   Havasicakligi > 12.54043
|   |   |   |   |   |   |   |   PM10 <= 65.012657
|   |   |   |   |   |   |   |   |   Bagilnem <= 64.35567
|   |   |   |   |   |   |   |   |   |   PM10 <= 47.91102
|   |   |   |   |   |   |   |   |   |   |   Ruzgarhizi <= 0.866972: 3/8/2020 (2.0/0.0)
|   |   |   |   |   |   |   |   |   |   |   Ruzgarhizi > 0.866972: 2/26/2020 (2.01/0.01)
|   |   |   |   |   |   |   |   |   |   PM10 > 47.91102: 3/6/2020 (5.71/1.71)
|   |   |   |   |   |   |   |   |   Bagilnem > 64.35567
|   |   |   |   |   |   |   |   |   |   PM10 <= 54.88102: 3/5/2020 (2.0/0.0)
|   |   |   |   |   |   |   |   |   |   PM10 > 54.88102: 3/9/2020 (3.0/1.0)
|   |   |   |   |   |   |   |   PM10 > 65.012657
|   |   |   |   |   |   |   |   |   Ruzgarhizi <= 2.621278
|   |   |   |   |   |   |   |   |   |   PM10 <= 91.71915
|   |   |   |   |   |   |   |   |   |   |   SO2 <= 9.904399: 3/11/2020 (6.02/1.02)
|   |   |   |   |   |   |   |   |   |   |   SO2 > 9.904399: 3/4/2020 (2.0/1.0)
|   |   |   |   |   |   |   |   |   |   PM10 > 91.71915: 3/10/2020 (3.01/1.01)
|   |   |   |   |   |   |   |   |   Ruzgarhizi > 2.621278: 3/5/2020 (2.01/0.01)
|   |   |   |   |   SO2 > 11.91405
|   |   |   |   |   |   Ruzgarhizi <= 1.568847
|   |   |   |   |   |   |   kabinsicakligi <= 19.20283
|   |   |   |   |   |   |   |   Havasicakligi <= 3.502098: 2/18/2020 (3.0/1.0)
|   |   |   |   |   |   |   |   Havasicakligi > 3.502098
|   |   |   |   |   |   |   |   |   SO2 <= 14.33858: 3/8/2020 (2.0/0.0)
|   |   |   |   |   |   |   |   |   SO2 > 14.33858: 2/17/2020 (3.0/0.0)
|   |   |   |   |   |   |   kabinsicakligi > 19.20283
|   |   |   |   |   |   |   |   SO2 <= 15.63242
|   |   |   |   |   |   |   |   |   kabinsicakligi <= 19.39731
|   |   |   |   |   |   |   |   |   |   Havasicakligi <= 3.129645: 2/28/2020 (2.0/1.0)
|   |   |   |   |   |   |   |   |   |   Havasicakligi > 3.129645: 2/23/2020 (4.0/1.0)
|   |   |   |   |   |   |   |   |   kabinsicakligi > 19.39731
|   |   |   |   |   |   |   |   |   |   kabinsicakligi <= 19.42681
|   |   |   |   |   |   |   |   |   |   |   PM10 <= 115.7723
|   |   |   |   |   |   |   |   |   |   |   |   SO2 <= 12.64295: 2/22/2020 (2.0/0.0)
|   |   |   |   |   |   |   |   |   |   |   |   SO2 > 12.64295: 3/4/2020 (2.0/1.0)
|   |   |   |   |   |   |   |   |   |   |   PM10 > 115.7723: 3/4/2020 (4.0/1.0)
|   |   |   |   |   |   |   |   |   |   kabinsicakligi > 19.42681
|   |   |   |   |   |   |   |   |   |   |   Ruzgarhizi <= 0.771097: 3/2/2020 (2.0/1.0)
|   |   |   |   |   |   |   |   |   |   |   Ruzgarhizi > 0.771097: 2/3/2020 (2.0/0.0)
|   |   |   |   |   |   |   |   SO2 > 15.63242
|   |   |   |   |   |   |   |   |   Ruzgarhizi <= 0.876028
|   |   |   |   |   |   |   |   |   |   Havasicakligi <= 8.79149: 2/26/2020 (3.0/0.0)
|   |   |   |   |   |   |   |   |   |   Havasicakligi > 8.79149: 3/3/2020 (2.0/0.0)
|   |   |   |   |   |   |   |   |   Ruzgarhizi > 0.876028: 2/28/2020 (3.0/1.0)
|   |   |   |   |   |   Ruzgarhizi > 1.568847: 2/21/2020 (13.19/1.19)
|   kabinsicakligi > 19.71018
|   |   Ruzgarhizi <= 1.743361
|   |   |   kabinsicakligi <= 22.90537
|   |   |   |   Havasicakligi <= 4.434844
|   |   |   |   |   PM10 <= 90.62323
|   |   |   |   |   |   Bagilnem <= 49.25597
|   |   |   |   |   |   |   Havasicakligi <= -2.99703
|   |   |   |   |   |   |   |   PM10 <= 28.94043: 1/24/2020 (3.0/0.0)
|   |   |   |   |   |   |   |   PM10 > 28.94043: 1/28/2020 (3.0/1.0)
|   |   |   |   |   |   |   Havasicakligi > -2.99703
|   |   |   |   |   |   |   |   kabinsicakligi <= 19.8: 3/19/2020 (2.0/0.0)
|   |   |   |   |   |   |   |   kabinsicakligi > 19.8
|   |   |   |   |   |   |   |   |   kabinsicakligi <= 21.1844: 1/22/2020 (4.0/0.0)
|   |   |   |   |   |   |   |   |   kabinsicakligi > 21.1844
|   |   |   |   |   |   |   |   |   |   SO2 <= 14.56586: 1/24/2020 (4.0/0.0)
|   |   |   |   |   |   |   |   |   |   SO2 > 14.56586: 1/22/2020 (3.0/0.0)
|   |   |   |   |   |   Bagilnem > 49.25597
|   |   |   |   |   |   |   PM10 <= 38.78156
|   |   |   |   |   |   |   |   Havasicakligi <= 2.117847: 1/31/2020 (7.05/0.05)
|   |   |   |   |   |   |   |   Havasicakligi > 2.117847: 1/22/2020 (4.03/0.03)
|   |   |   |   |   |   |   PM10 > 38.78156
|   |   |   |   |   |   |   |   Havasicakligi <= 1.026025: 1/30/2020 (5.01/1.01)
|   |   |   |   |   |   |   |   Havasicakligi > 1.026025
|   |   |   |   |   |   |   |   |   Havasicakligi <= 3.831117: 1/23/2020 (4.01/1.01)
|   |   |   |   |   |   |   |   |   Havasicakligi > 3.831117: 1/25/2020 (2.0/0.0)
|   |   |   |   |   PM10 > 90.62323
|   |   |   |   |   |   Havasicakligi <= -3.785127
|   |   |   |   |   |   |   PM10 <= 114: 1/26/2020 (2.0/1.0)
|   |   |   |   |   |   |   PM10 > 114: 1/27/2020 (7.01/2.01)
|   |   |   |   |   |   Havasicakligi > -3.785127
|   |   |   |   |   |   |   SO2 <= 29.80334
|   |   |   |   |   |   |   |   Ruzgarhizi <= 0.610389: 1/25/2020 (4.0/0.0)
|   |   |   |   |   |   |   |   Ruzgarhizi > 0.610389: 1/28/2020 (10.02/3.02)
|   |   |   |   |   |   |   SO2 > 29.80334: 1/26/2020 (5.0/1.0)
|   |   |   |   Havasicakligi > 4.434844
|   |   |   |   |   Bagilnem <= 61.7122
|   |   |   |   |   |   SO2 <= 15.85942
|   |   |   |   |   |   |   Ruzgarhizi <= 1.558417
|   |   |   |   |   |   |   |   Bagilnem <= 55.33944: 2/3/2020 (3.02/0.02)
|   |   |   |   |   |   |   |   Bagilnem > 55.33944: 1/27/2020 (2.41/0.41)
|   |   |   |   |   |   |   Ruzgarhizi > 1.558417: 2/7/2020 (2.0/0.0)
|   |   |   |   |   |   SO2 > 15.85942
|   |   |   |   |   |   |   Ruzgarhizi <= 1.145417
|   |   |   |   |   |   |   |   Havasicakligi <= 6.882128: 2/4/2020 (6.01/1.0)
|   |   |   |   |   |   |   |   Havasicakligi > 6.882128: 1/26/2020 (2.61/0.0)
|   |   |   |   |   |   |   Ruzgarhizi > 1.145417: 1/23/2020 (3.0/1.0)
|   |   |   |   |   Bagilnem > 61.7122
|   |   |   |   |   |   PM10 <= 57.46383: 3/8/2020 (2.0/0.0)
|   |   |   |   |   |   PM10 > 57.46383: 3/12/2020 (6.01/1.01)
|   |   |   kabinsicakligi > 22.90537
|   |   |   |   kabinsicakligi <= 23.30891
|   |   |   |   |   Havasicakligi <= 3.165532: 1/30/2020 (6.02/1.02)
|   |   |   |   |   Havasicakligi > 3.165532
|   |   |   |   |   |   kabinsicakligi <= 23.00297: 2/5/2020 (4.01/0.01)
|   |   |   |   |   |   kabinsicakligi > 23.00297: 1/28/2020 (2.01/1.01)
|   |   |   |   kabinsicakligi > 23.30891
|   |   |   |   |   PM10 <= 163.6841
|   |   |   |   |   |   Havasicakligi <= 7.861331
|   |   |   |   |   |   |   Havasicakligi <= 0.44383
|   |   |   |   |   |   |   |   Ruzgarhizi <= 0.839333: 1/28/2020 (2.01/0.01)
|   |   |   |   |   |   |   |   Ruzgarhizi > 0.839333: 1/30/2020 (2.01/0.01)
|   |   |   |   |   |   |   Havasicakligi > 0.44383
|   |   |   |   |   |   |   |   Ruzgarhizi <= 1.36525
|   |   |   |   |   |   |   |   |   Bagilnem <= 56.37617: 1/29/2020 (27.05/3.05)
|   |   |   |   |   |   |   |   |   Bagilnem > 56.37617: 1/28/2020 (2.03/0.03)
|   |   |   |   |   |   |   |   Ruzgarhizi > 1.36525: 1/28/2020 (5.0/1.0)
|   |   |   |   |   |   Havasicakligi > 7.861331: 1/27/2020 (2.01/0.01)
|   |   |   |   |   PM10 > 163.6841: 1/27/2020 (6.01/1.01)
|   |   Ruzgarhizi > 1.743361
|   |   |   Bagilnem <= 61.16247
|   |   |   |   Bagilnem <= 55.04755
|   |   |   |   |   Bagilnem <= 49.17369
|   |   |   |   |   |   SO2 <= 6.186698: 1/24/2020 (4.13/0.13)
|   |   |   |   |   |   SO2 > 6.186698: 1/21/2020 (2.0/0.0)
|   |   |   |   |   Bagilnem > 49.17369
|   |   |   |   |   |   SO2 <= 8.171965: 1/31/2020 (15.01/1.01)
|   |   |   |   |   |   SO2 > 8.171965
|   |   |   |   |   |   |   Havasicakligi <= 3.816973: 1/23/2020 (4.0/0.0)
|   |   |   |   |   |   |   Havasicakligi > 3.816973: 2/7/2020 (4.0/1.0)
|   |   |   |   Bagilnem > 55.04755
|   |   |   |   |   kabinsicakligi <= 22.60651
|   |   |   |   |   |   Ruzgarhizi <= 3.902333: 2/7/2020 (9.06/0.06)
|   |   |   |   |   |   Ruzgarhizi > 3.902333: 2/6/2020 (19.02/1.02)
|   |   |   |   |   kabinsicakligi > 22.60651
|   |   |   |   |   |   kabinsicakligi <= 23.10933
|   |   |   |   |   |   |   SO2 <= 8.408836
|   |   |   |   |   |   |   |   kabinsicakligi <= 23: 2/6/2020 (7.02/1.02)
|   |   |   |   |   |   |   |   kabinsicakligi > 23: 2/5/2020 (2.01/0.01)
|   |   |   |   |   |   |   SO2 > 8.408836: 2/5/2020 (16.05/0.05)
|   |   |   |   |   |   kabinsicakligi > 23.10933: 1/30/2020 (11.03/0.03)
|   |   |   Bagilnem > 61.16247
|   |   |   |   SO2 <= 5.624668
|   |   |   |   |   SO2 <= 4.0148: 3/15/2020 (3.0/0.0)
|   |   |   |   |   SO2 > 4.0148
|   |   |   |   |   |   kabinsicakligi <= 20.04363: 3/31/2020 (2.0/1.0)
|   |   |   |   |   |   kabinsicakligi > 20.04363: 3/26/2020 (4.0/0.0)
|   |   |   |   SO2 > 5.624668
|   |   |   |   |   PM10 <= 53.7932: 3/23/2020 (3.0/0.0)
|   |   |   |   |   PM10 > 53.7932
|   |   |   |   |   |   Havasicakligi <= 19.32517
|   |   |   |   |   |   |   SO2 <= 8.623125
|   |   |   |   |   |   |   |   PM10 <= 79.31683: 3/10/2020 (6.01/0.01)
|   |   |   |   |   |   |   |   PM10 > 79.31683
|   |   |   |   |   |   |   |   |   kabinsicakligi <= 20.31117: 3/10/2020 (2.0/0.0)
|   |   |   |   |   |   |   |   |   kabinsicakligi > 20.31117: 3/12/2020 (2.0/0.0)
|   |   |   |   |   |   |   SO2 > 8.623125: 3/11/2020 (2.0/0.0)
|   |   |   |   |   |   Havasicakligi > 19.32517: 3/11/2020 (4.0/0.0)

Number of Leaves  : 	513

Size of the tree : 	1025


Time taken to build model: 0.33 seconds

=== Stratified cross-validation ===
=== Summary ===

Correctly Classified Instances         894               40.9341 %
Kappa statistic                          0.4028
Mean absolute error                      0.0135
Root mean squared error                  0.1036
Relative absolute error                 62.6762 %
Root relative squared error             99.922  %
Total Number of Instances             2184     

=== Detailed Accuracy By Class ===

                 TP Rate  FP Rate  Precision  Recall   F-Measure  MCC      ROC Area  PRC Area  Class
                 0,500    0,001    0,333      0,500    0,400      0,408    0,749     0,167     4/1/2020
                 0,000    0,009    0,000      0,000    0,000      -0,010   0,585     0,021     3/31/2020
                 0,542    0,012    0,342      0,542    0,419      0,423    0,764     0,214     3/30/2020
                 0,625    0,004    0,652      0,625    0,638      0,635    0,893     0,584     3/29/2020
                 0,292    0,013    0,194      0,292    0,233      0,228    0,720     0,127     3/28/2020
                 0,458    0,005    0,524      0,458    0,489      0,485    0,788     0,269     3/27/2020
                 0,458    0,007    0,423      0,458    0,440      0,434    0,745     0,275     3/26/2020
                 0,375    0,004    0,500      0,375    0,429      0,428    0,744     0,306     3/25/2020
                 0,375    0,009    0,321      0,375    0,346      0,339    0,701     0,151     3/24/2020
                 0,125    0,010    0,125      0,125    0,125      0,115    0,594     0,052     3/23/2020
                 0,167    0,011    0,143      0,167    0,154      0,144    0,614     0,045     3/22/2020
                 0,083    0,009    0,095      0,083    0,089      0,080    0,553     0,025     3/21/2020
                 0,417    0,009    0,345      0,417    0,377      0,371    0,744     0,207     3/20/2020
                 0,375    0,007    0,375      0,375    0,375      0,368    0,742     0,201     3/19/2020
                 0,667    0,008    0,485      0,667    0,561      0,563    0,829     0,363     3/18/2020
                 0,458    0,007    0,407      0,458    0,431      0,425    0,889     0,422     3/17/2020
                 0,250    0,009    0,231      0,250    0,240      0,231    0,717     0,112     3/16/2020
                 0,458    0,003    0,647      0,458    0,537      0,540    0,768     0,421     3/15/2020
                 0,500    0,004    0,571      0,500    0,533      0,530    0,828     0,402     3/14/2020
                 0,375    0,007    0,375      0,375    0,375      0,368    0,786     0,246     3/13/2020
                 0,250    0,009    0,240      0,250    0,245      0,236    0,760     0,136     3/12/2020
                 0,208    0,006    0,278      0,208    0,238      0,233    0,702     0,160     3/11/2020
                 0,583    0,006    0,519      0,583    0,549      0,545    0,872     0,507     3/10/2020
                 0,500    0,008    0,414      0,500    0,453      0,448    0,787     0,405     3/9/2020
                 0,292    0,010    0,250      0,292    0,269      0,261    0,659     0,121     3/8/2020
                 0,667    0,005    0,615      0,667    0,640      0,636    0,885     0,514     3/7/2020
                 0,375    0,009    0,310      0,375    0,340      0,333    0,764     0,176     3/6/2020
                 0,208    0,008    0,217      0,208    0,213      0,204    0,657     0,074     3/5/2020
                 0,000    0,008    0,000      0,000    0,000      -0,009   0,570     0,021     3/4/2020
                 0,125    0,010    0,125      0,125    0,125      0,115    0,592     0,034     3/3/2020
                 0,000    0,008    0,000      0,000    0,000      -0,010   0,507     0,012     3/2/2020
                 0,375    0,005    0,450      0,375    0,409      0,405    0,704     0,304     3/1/2020
                 0,292    0,005    0,389      0,292    0,333      0,330    0,763     0,217     2/29/2020
                 0,125    0,011    0,115      0,125    0,120      0,110    0,573     0,030     2/28/2020
                 0,125    0,009    0,130      0,125    0,128      0,118    0,632     0,047     2/27/2020
                 0,167    0,012    0,138      0,167    0,151      0,141    0,655     0,058     2/26/2020
                 0,333    0,006    0,364      0,333    0,348      0,341    0,722     0,272     2/25/2020
                 0,250    0,007    0,273      0,250    0,261      0,253    0,679     0,117     2/24/2020
                 0,333    0,012    0,242      0,333    0,281      0,275    0,720     0,145     2/23/2020
                 0,417    0,005    0,500      0,417    0,455      0,451    0,745     0,274     2/22/2020
                 0,625    0,004    0,652      0,625    0,638      0,635    0,831     0,410     2/21/2020
                 0,583    0,004    0,609      0,583    0,596      0,591    0,872     0,448     2/20/2020
                 0,542    0,007    0,448      0,542    0,491      0,487    0,764     0,219     2/19/2020
                 0,167    0,011    0,148      0,167    0,157      0,147    0,617     0,067     2/18/2020
                 0,167    0,009    0,174      0,167    0,170      0,161    0,677     0,076     2/17/2020
                 0,417    0,005    0,476      0,417    0,444      0,440    0,808     0,371     2/16/2020
                 0,417    0,005    0,500      0,417    0,455      0,451    0,745     0,304     2/15/2020
                 0,708    0,004    0,680      0,708    0,694      0,691    0,914     0,512     2/14/2020
                 0,542    0,004    0,591      0,542    0,565      0,561    0,789     0,438     2/13/2020
                 0,750    0,004    0,692      0,750    0,720      0,717    0,873     0,663     2/12/2020
                 0,792    0,003    0,760      0,792    0,776      0,773    0,915     0,653     2/11/2020
                 0,583    0,005    0,583      0,583    0,583      0,579    0,789     0,340     2/10/2020
                 0,500    0,005    0,545      0,500    0,522      0,517    0,788     0,330     2/9/2020
                 0,583    0,004    0,609      0,583    0,596      0,591    0,886     0,450     2/8/2020
                 0,667    0,003    0,696      0,667    0,681      0,678    0,869     0,451     2/7/2020
                 0,875    0,002    0,840      0,875    0,857      0,856    0,936     0,687     2/6/2020
                 0,750    0,004    0,692      0,750    0,720      0,717    0,893     0,534     2/5/2020
                 0,500    0,005    0,545      0,500    0,522      0,517    0,876     0,464     2/4/2020
                 0,583    0,008    0,452      0,583    0,509      0,507    0,886     0,375     2/3/2020
                 0,500    0,004    0,571      0,500    0,533      0,530    0,889     0,450     2/2/2020
                 0,333    0,005    0,444      0,333    0,381      0,379    0,806     0,345     2/1/2020
                 0,708    0,002    0,773      0,708    0,739      0,737    0,915     0,761     1/31/2020
                 0,667    0,006    0,552      0,667    0,604      0,602    0,829     0,420     1/30/2020
                 0,750    0,004    0,692      0,750    0,720      0,717    0,957     0,737     1/29/2020
                 0,292    0,007    0,318      0,292    0,304      0,297    0,804     0,236     1/28/2020
                 0,458    0,005    0,500      0,458    0,478      0,473    0,725     0,338     1/27/2020
                 0,417    0,004    0,526      0,417    0,465      0,463    0,877     0,383     1/26/2020
                 0,167    0,007    0,211      0,167    0,186      0,179    0,677     0,079     1/25/2020
                 0,458    0,005    0,524      0,458    0,489      0,485    0,786     0,323     1/24/2020
                 0,333    0,005    0,421      0,333    0,372      0,368    0,742     0,183     1/23/2020
                 0,167    0,008    0,190      0,167    0,178      0,170    0,615     0,055     1/22/2020
                 0,417    0,006    0,417      0,417    0,417      0,410    0,737     0,240     1/21/2020
                 0,625    0,002    0,750      0,625    0,682      0,681    0,873     0,645     1/20/2020
                 0,417    0,007    0,385      0,417    0,400      0,393    0,745     0,231     1/19/2020
                 0,250    0,008    0,250      0,250    0,250      0,242    0,695     0,108     1/18/2020
                 0,375    0,006    0,409      0,375    0,391      0,385    0,703     0,154     1/17/2020
                 0,667    0,006    0,552      0,667    0,604      0,602    0,912     0,559     1/16/2020
                 0,208    0,010    0,185      0,208    0,196      0,187    0,720     0,109     1/15/2020
                 0,250    0,011    0,207      0,250    0,226      0,218    0,634     0,071     1/14/2020
                 0,583    0,006    0,538      0,583    0,560      0,555    0,808     0,525     1/13/2020
                 0,375    0,006    0,391      0,375    0,383      0,376    0,680     0,158     1/12/2020
                 0,083    0,007    0,111      0,083    0,095      0,088    0,569     0,050     1/11/2020
                 0,500    0,006    0,500      0,500    0,500      0,494    0,766     0,346     1/10/2020
                 0,125    0,008    0,150      0,125    0,136      0,128    0,633     0,052     1/9/2020
                 0,417    0,010    0,313      0,417    0,357      0,353    0,744     0,293     1/8/2020
                 0,875    0,001    0,875      0,875    0,875      0,874    0,958     0,905     1/7/2020
                 0,500    0,006    0,500      0,500    0,500      0,494    0,766     0,419     1/6/2020
                 0,417    0,001    0,769      0,417    0,541      0,563    0,702     0,317     1/5/2020
                 0,500    0,006    0,500      0,500    0,500      0,494    0,787     0,339     1/4/2020
                 0,417    0,010    0,313      0,417    0,357      0,353    0,743     0,190     1/3/2020
                 0,167    0,007    0,211      0,167    0,186      0,179    0,880     0,284     1/2/2020
                 0,455    0,005    0,476      0,455    0,465      0,460    0,788     0,228     1/1/2020
Weighted Avg.    0,409    0,007    0,412      0,409    0,408      0,403    0,760     0,290     

=== Confusion Matrix ===

  a  b  c  d  e  f  g  h  i  j  k  l  m  n  o  p  q  r  s  t  u  v  w  x  y  z aa ab ac ad ae af ag ah ai aj ak al am an ao ap aq ar as at au av aw ax ay az ba bb bc bd be bf bg bh bi bj bk bl bm bn bo bp bq br bs bt bu bv bw bx by bz ca cb cc cd ce cf cg ch ci cj ck cl cm cn   <-- classified as
  1  0  1  0  0  0  0  0  0  0  0  0  0  0  0  0  0  0  0  0  0  0  0  0  0  0  0  0  0  0  0  0  0  0  0  0  0  0  0  0  0  0  0  0  0  0  0  0  0  0  0  0  0  0  0  0  0  0  0  0  0  0  0  0  0  0  0  0  0  0  0  0  0  0  0  0  0  0  0  0  0  0  0  0  0  0  0  0  0  0  0  0 |  a = 4/1/2020
  0  0  0  0  4  0  1  0  3  2  1  0  1  0  3  0  1  0  0  1  1  1  0  0  0  0  2  0  0  0  1  0  0  0  0  1  0  0  0  0  0  0  0  0  0  0  0  0  0  0  0  0  0  0  1  0  0  0  0  0  0  0  0  0  0  0  0  0  0  0  0  0  0  0  0  0  0  0  0  0  0  0  0  0  0  0  0  0  0  0  0  0 |  b = 3/31/2020
  1  0 13  0  0  0  1  0  2  1  1  0  0  0  0  0  1  0  0  0  0  0  0  0  0  0  2  0  0  0  0  0  0  0  0  0  0  2  0  0  0  0  0  0  0  0  0  0  0  0  0  0  0  0  0  0  0  0  0  0  0  0  0  0  0  0  0  0  0  0  0  0  0  0  0  0  0  0  0  0  0  0  0  0  0  0  0  0  0  0  0  0 |  c = 3/30/2020
  0  2  0 15  2  0  0  0  0  0  0  0  2  0  0  1  0  0  2  0  0  0  0  0  0  0  0  0  0  0  0  0  0  0  0  0  0  0  0  0  0  0  0  0  0  0  0  0  0  0  0  0  0  0  0  0  0  0  0  0  0  0  0  0  0  0  0  0  0  0  0  0  0  0  0  0  0  0  0  0  0  0  0  0  0  0  0  0  0  0  0  0 |  d = 3/29/2020
  0  2  1  5  7  2  1  0  0  0  0  0  0  0  0  0  3  0  1  0  0  0  0  0  0  0  0  0  0  0  1  0  0  0  0  0  0  0  0  0  0  0  0  0  0  0  0  0  0  0  0  0  0  0  1  0  0  0  0  0  0  0  0  0  0  0  0  0  0  0  0  0  0  0  0  0  0  0  0  0  0  0  0  0  0  0  0  0  0  0  0  0 |  e = 3/28/2020
  0  0  0  0  2 11  2  1  0  0  0  1  1  0  0  0  4  0  0  1  0  0  0  0  0  0  0  0  0  0  0  0  0  0  0  0  0  1  0  0  0  0  0  0  0  0  0  0  0  0  0  0  0  0  0  0  0  0  0  0  0  0  0  0  0  0  0  0  0  0  0  0  0  0  0  0  0  0  0  0  0  0  0  0  0  0  0  0  0  0  0  0 |  f = 3/27/2020
  0  1  3  0  2  0 11  0  0  0  0  0  0  0  0  0  1  5  1  0  0  0  0  0  0  0  0  0  0  0  0  0  0  0  0  0  0  0  0  0  0  0  0  0  0  0  0  0  0  0  0  0  0  0  0  0  0  0  0  0  0  0  0  0  0  0  0  0  0  0  0  0  0  0  0  0  0  0  0  0  0  0  0  0  0  0  0  0  0  0  0  0 |  g = 3/26/2020
  0  1  0  0  0  2  0  9  2  0  0  0  0  0  0  1  2  0  1  2  1  0  0  1  0  0  0  0  0  0  0  1  0  0  0  0  1  0  0  0  0  0  0  0  0  0  0  0  0  0  0  0  0  0  0  0  0  0  0  0  0  0  0  0  0  0  0  0  0  0  0  0  0  0  0  0  0  0  0  0  0  0  0  0  0  0  0  0  0  0  0  0 |  h = 3/25/2020
  0  0  0  0  2  1  0  2  9  0  0  3  0  0  0  0  1  0  0  3  1  0  0  0  0  0  0  0  0  0  0  0  1  0  0  0  0  1  0  0  0  0  0  0  0  0  0  0  0  0  0  0  0  0  0  0  0  0  0  0  0  0  0  0  0  0  0  0  0  0  0  0  0  0  0  0  0  0  0  0  0  0  0  0  0  0  0  0  0  0  0  0 |  i = 3/24/2020
  0  2  0  0  1  0  1  0  0  3  0  0  3  1  1  1  0  0  1  0  0  0  3  0  2  0  0  0  1  2  0  0  0  0  0  0  0  0  1  0  0  0  0  0  0  0  0  0  0  0  0  0  0  0  0  0  0  0  0  0  0  0  0  0  0  0  0  0  0  1  0  0  0  0  0  0  0  0  0  0  0  0  0  0  0  0  0  0  0  0  0  0 |  j = 3/23/2020
  0  0  1  0  1  0  0  0  3  1  4  1  1  1  0  0  0  0  0  0  0  0  0  0  0  0  1  0  2  1  2  0  0  1  1  0  0  1  2  0  0  0  0  0  0  0  0  0  0  0  0  0  0  0  0  0  0  0  0  0  0  0  0  0  0  0  0  0  0  0  0  0  0  0  0  0  0  0  0  0  0  0  0  0  0  0  0  0  0  0  0  0 |  k = 3/22/2020
  0  1  1  0  1  0  1  1  1  0  3  2  2  0  0  0  1  0  0  0  1  0  0  0  0  1  1  0  0  1  2  1  0  0  1  1  0  0  0  0  0  0  1  0  0  0  0  0  0  0  0  0  0  0  0  0  0  0  0  0  0  0  0  0  0  0  0  0  0  0  0  0  0  0  0  0  0  0  0  0  0  0  0  0  0  0  0  0  0  0  0  0 |  l = 3/21/2020
  1  2  1  0  0  0  0  0  0  1  0  1 10  3  0  4  0  0  0  0  0  0  0  0  0  0  0  0  0  0  0  0  0  0  0  0  0  1  0  0  0  0  0  0  0  0  0  0  0  0  0  0  0  0  0  0  0  0  0  0  0  0  0  0  0  0  0  0  0  0  0  0  0  0  0  0  0  0  0  0  0  0  0  0  0  0  0  0  0  0  0  0 |  m = 3/20/2020
  0  0  0  0  0  0  0  0  0  1  0  2  2  9  3  1  0  0  0  0  0  1  0  0  0  0  0  0  0  1  0  0  0  0  0  0  0  1  1  0  0  0  0  0  0  0  0  0  1  0  0  0  0  0  0  0  0  0  0  0  0  0  0  0  0  0  0  0  0  0  1  0  0  0  0  0  0  0  0  0  0  0  0  0  0  0  0  0  0  0  0  0 |  n = 3/19/2020
  0  2  0  0  0  0  0  0  0  0  0  0  0  1 16  2  0  0  0  0  0  0  0  0  0  0  0  1  0  0  0  0  0  0  0  0  0  0  0  1  0  0  0  0  0  0  0  0  0  0  0  0  0  0  0  0  0  0  0  0  0  0  0  0  0  0  0  0  1  0  0  0  0  0  0  0  0  0  0  0  0  0  0  0  0  0  0  0  0  0  0  0 |  o = 3/18/2020
  0  0  0  0  0  0  0  2  0  0  0  0  4  0  5 11  0  0  0  0  0  0  0  0  0  0  0  0  0  0  0  1  0  0  0  0  1  0  0  0  0  0  0  0  0  0  0  0  0  0  0  0  0  0  0  0  0  0  0  0  0  0  0  0  0  0  0  0  0  0  0  0  0  0  0  0  0  0  0  0  0  0  0  0  0  0  0  0  0  0  0  0 |  p = 3/17/2020
  0  0  3  0  6  0  0  0  1  0  2  2  0  0  0  1  6  0  0  3  0  0  0  0  0  0  0  0  0  0  0  0  0  0  0  0  0  0  0  0  0  0  0  0  0  0  0  0  0  0  0  0  0  0  0  0  0  0  0  0  0  0  0  0  0  0  0  0  0  0  0  0  0  0  0  0  0  0  0  0  0  0  0  0  0  0  0  0  0  0  0  0 |  q = 3/16/2020
  0  1  0  1  0  0  7  1  0  0  0  0  0  1  0  0  0 11  2  0  0  0  0  0  0  0  0  0  0  0  0  0  0  0  0  0  0  0  0  0  0  0  0  0  0  0  0  0  0  0  0  0  0  0  0  0  0  0  0  0  0  0  0  0  0  0  0  0  0  0  0  0  0  0  0  0  0  0  0  0  0  0  0  0  0  0  0  0  0  0  0  0 |  r = 3/15/2020
  0  0  0  2  5  2  1  0  1  0  0  0  0  0  0  0  0  0 12  0  0  1  0  0  0  0  0  0  0  0  0  0  0  0  0  0  0  0  0  0  0  0  0  0  0  0  0  0  0  0  0  0  0  0  0  0  0  0  0  0  0  0  0  0  0  0  0  0  0  0  0  0  0  0  0  0  0  0  0  0  0  0  0  0  0  0  0  0  0  0  0  0 |  s = 3/14/2020
  0  0  3  0  1  0  0  1  2  0  0  1  0  0  0  0  2  0  1  9  2  0  0  0  0  0  1  0  0  0  0  1  0  0  0  0  0  0  0  0  0  0  0  0  0  0  0  0  0  0  0  0  0  0  0  0  0  0  0  0  0  0  0  0  0  0  0  0  0  0  0  0  0  0  0  0  0  0  0  0  0  0  0  0  0  0  0  0  0  0  0  0 |  t = 3/13/2020
  0  1  0  0  0  2  0  0  2  0  1  0  0  0  0  0  0  0  0  3  6  3  2  0  2  0  0  1  0  0  0  0  0  0  1  0  0  0  0  0  0  0  0  0  0  0  0  0  0  0  0  0  0  0  0  0  0  0  0  0  0  0  0  0  0  0  0  0  0  0  0  0  0  0  0  0  0  0  0  0  0  0  0  0  0  0  0  0  0  0  0  0 |  u = 3/12/2020
  0  1  0  0  0  0  0  0  0  1  1  0  0  0  0  0  0  0  0  0  5  5  4  1  0  0  1  0  1  3  0  0  0  0  0  0  0  0  1  0  0  0  0  0  0  0  0  0  0  0  0  0  0  0  0  0  0  0  0  0  0  0  0  0  0  0  0  0  0  0  0  0  0  0  0  0  0  0  0  0  0  0  0  0  0  0  0  0  0  0  0  0 |  v = 3/11/2020
  0  0  0  0  0  0  0  0  0  1  0  0  0  0  0  0  0  0  0  1  4  1 14  2  0  0  0  0  0  0  0  0  0  1  0  0  0  0  0  0  0  0  0  0  0  0  0  0  0  0  0  0  0  0  0  0  0  0  0  0  0  0  0  0  0  0  0  0  0  0  0  0  0  0  0  0  0  0  0  0  0  0  0  0  0  0  0  0  0  0  0  0 |  w = 3/10/2020
  0  0  0  0  0  0  0  0  0  1  1  0  0  0  0  0  0  0  0  0  0  0  1 12  3  0  1  1  0  0  0  0  0  1  0  1  0  0  0  0  0  0  0  0  0  0  0  0  0  0  0  0  0  0  0  0  0  1  0  1  0  0  0  0  0  0  0  0  0  0  0  0  0  0  0  0  0  0  0  0  0  0  0  0  0  0  0  0  0  0  0  0 |  x = 3/9/2020
  0  0  1  0  0  0  0  0  0  3  0  0  0  0  0  0  0  0  0  0  2  0  0  2  7  0  0  1  0  0  0  0  1  0  0  2  0  0  0  0  0  0  0  1  2  0  0  0  0  0  0  0  0  0  0  0  0  1  0  0  0  0  0  0  0  0  0  0  0  0  1  0  0  0  0  0  0  0  0  0  0  0  0  0  0  0  0  0  0  0  0  0 |  y = 3/8/2020
  0  0  0  0  0  0  0  0  0  0  1  0  0  0  0  0  0  0  0  0  1  1  0  0  1 16  0  0  0  0  0  1  1  0  0  0  0  0  0  0  0  0  0  0  0  0  0  0  0  0  0  0  0  0  0  0  0  1  0  0  0  0  0  0  0  0  0  0  0  0  0  0  0  0  0  0  0  0  1  0  0  0  0  0  0  0  0  0  0  0  0  0 |  z = 3/7/2020
  0  0  1  0  0  0  0  0  0  0  1  0  0  0  0  0  1  0  0  1  0  0  1  0  2  0  9  3  0  0  0  1  0  2  1  0  0  0  1  0  0  0  0  0  0  0  0  0  0  0  0  0  0  0  0  0  0  0  0  0  0  0  0  0  0  0  0  0  0  0  0  0  0  0  0  0  0  0  0  0  0  0  0  0  0  0  0  0  0  0  0  0 | aa = 3/6/2020
  0  1  0  0  0  0  0  0  0  2  0  0  0  1  0  0  0  0  0  0  0  1  1  0  0  0  2  5  2  1  0  1  0  2  1  0  1  1  2  0  0  0  0  0  0  0  0  0  0  0  0  0  0  0  0  0  0  0  0  0  0  0  0  0  0  0  0  0  0  0  0  0  0  0  0  0  0  0  0  0  0  0  0  0  0  0  0  0  0  0  0  0 | ab = 3/5/2020
  0  0  0  0  1  0  0  0  1  3  3  0  1  1  0  0  0  0  0  0  1  0  0  0  2  0  1  1  0  2  0  0  0  2  1  1  0  0  2  1  0  0  0  0  0  0  0  0  0  0  0  0  0  0  0  0  0  0  0  0  0  0  0  0  0  0  0  0  0  0  0  0  0  0  0  0  0  0  0  0  0  0  0  0  0  0  0  0  0  0  0  0 | ac = 3/4/2020
  0  1  0  0  0  0  0  1  0  0  1  2  0  0  0  0  1  0  0  0  0  0  0  0  0  1  0  0  2  3  0  0  0  1  3  2  1  0  1  0  0  1  3  0  0  0  0  0  0  0  0  0  0  0  0  0  0  0  0  0  0  0  0  0  0  0  0  0  0  0  0  0  0  0  0  0  0  0  0  0  0  0  0  0  0  0  0  0  0  0  0  0 | ad = 3/3/2020
  0  1  2  0  0  1  0  0  0  0  2  4  0  1  0  0  2  0  0  0  0  0  0  0  1  0  0  0  1  0  0  1  0  0  1  2  0  0  2  0  0  1  1  0  0  0  0  0  0  0  0  0  0  0  0  0  0  0  0  0  0  0  0  0  0  0  0  0  0  0  1  0  0  0  0  0  0  0  0  0  0  0  0  0  0  0  0  0  0  0  0  0 | ae = 3/2/2020
  0  1  2  0  0  0  0  0  1  0  1  0  1  0  0  0  0  0  0  0  0  0  0  1  0  0  1  0  0  0  0  9  1  2  0  1  0  2  0  1  0  0  0  0  0  0  0  0  0  0  0  0  0  0  0  0  0  0  0  0  0  0  0  0  0  0  0  0  0  0  0  0  0  0  0  0  0  0  0  0  0  0  0  0  0  0  0  0  0  0  0  0 | af = 3/1/2020
  0  0  1  0  0  0  0  0  0  0  0  0  0  0  0  0  0  0  0  0  0  0  0  0  0  4  3  0  0  0  0  0  7  0  0  0  5  0  1  2  0  0  0  0  1  0  0  0  0  0  0  0  0  0  0  0  0  0  0  0  0  0  0  0  0  0  0  0  0  0  0  0  0  0  0  0  0  0  0  0  0  0  0  0  0  0  0  0  0  0  0  0 | ag = 2/29/2020
  0  0  0  0  0  0  0  0  0  1  1  0  0  1  0  0  0  0  0  0  0  1  0  1  1  0  1  1  1  0  1  0  1  3  2  1  2  2  3  0  0  0  0  0  0  0  0  0  0  0  0  0  0  0  0  0  0  0  0  0  0  0  0  0  0  0  0  0  0  0  0  0  0  0  0  0  0  0  0  0  0  0  0  0  0  0  0  0  0  0  0  0 | ah = 2/28/2020
  0  0  0  0  0  0  0  0  0  1  2  0  0  1  0  0  0  0  0  0  0  1  0  0  1  0  0  5  1  1  1  0  0  1  3  1  0  1  0  0  0  0  1  1  0  2  0  0  0  0  0  0  0  0  0  0  0  0  0  0  0  0  0  0  0  0  0  0  0  0  0  0  0  0  0  0  0  0  0  0  0  0  0  0  0  0  0  0  0  0  0  0 | ai = 2/27/2020
  0  0  0  0  0  0  0  0  0  0  0  0  0  1  0  0  0  0  0  0  0  1  0  1  1  0  0  0  1  3  3  0  0  1  2  4  0  0  0  0  0  0  1  0  0  1  0  0  0  1  0  0  0  0  0  0  0  0  0  0  0  0  0  0  0  0  0  0  1  0  2  0  0  0  0  0  0  0  0  0  0  0  0  0  0  0  0  0  0  0  0  0 | aj = 2/26/2020
  0  0  0  0  0  0  0  0  0  0  0  1  0  0  0  0  0  0  0  0  0  0  0  0  0  0  1  0  0  1  0  2  1  2  0  0  8  1  0  3  1  0  0  2  0  0  0  0  0  0  0  0  0  0  0  0  0  1  0  0  0  0  0  0  0  0  0  0  0  0  0  0  0  0  0  0  0  0  0  0  0  0  0  0  0  0  0  0  0  0  0  0 | ak = 2/25/2020
  0  0  2  0  0  0  0  0  0  0  0  0  0  0  0  1  0  0  0  0  0  1  1  1  1  0  1  1  0  2  1  0  0  3  1  0  0  6  2  0  0  0  0  0  0  0  0  0  0  0  0  0  0  0  0  0  0  0  0  0  0  0  0  0  0  0  0  0  0  0  0  0  0  0  0  0  0  0  0  0  0  0  0  0  0  0  0  0  0  0  0  0 | al = 2/24/2020
  0  0  0  0  0  0  0  0  0  1  0  0  0  0  0  0  0  0  0  0  0  0  0  0  0  0  1  2  1  1  1  0  0  0  2  0  0  2  8  2  1  0  2  0  0  0  0  0  0  0  0  0  0  0  0  0  0  0  0  0  0  0  0  0  0  0  0  0  0  0  0  0  0  0  0  0  0  0  0  0  0  0  0  0  0  0  0  0  0  0  0  0 | am = 2/23/2020
  0  0  0  0  0  0  0  0  0  0  0  0  0  0  1  0  0  0  0  0  0  0  0  0  0  1  0  1  1  0  2  0  4  1  0  0  2  0  1 10  0  0  0  0  0  0  0  0  0  0  0  0  0  0  0  0  0  0  0  0  0  0  0  0  0  0  0  0  0  0  0  0  0  0  0  0  0  0  0  0  0  0  0  0  0  0  0  0  0  0  0  0 | an = 2/22/2020
  0  0  0  0  0  0  0  0  0  0  0  0  0  0  0  0  0  0  0  0  0  0  0  0  0  0  0  0  0  0  0  0  1  1  0  0  1  0  1  0 15  5  0  0  0  0  0  0  0  0  0  0  0  0  0  0  0  0  0  0  0  0  0  0  0  0  0  0  0  0  0  0  0  0  0  0  0  0  0  0  0  0  0  0  0  0  0  0  0  0  0  0 | ao = 2/21/2020
  0  0  0  0  0  0  0  0  0  0  0  0  0  0  0  0  0  0  0  0  0  0  0  0  0  0  0  0  0  0  0  0  0  0  0  0  0  0  1  0  4 14  0  2  0  2  1  0  0  0  0  0  0  0  0  0  0  0  0  0  0  0  0  0  0  0  0  0  0  0  0  0  0  0  0  0  0  0  0  0  0  0  0  0  0  0  0  0  0  0  0  0 | ap = 2/20/2020
  0  0  0  0  0  0  0  0  0  0  0  1  0  0  0  0  0  0  0  0  0  0  0  0  0  0  0  0  2  1  0  0  0  0  0  2  0  0  2  0  0  0 13  0  1  1  0  0  1  0  0  0  0  0  0  0  0  0  0  0  0  0  0  0  0  0  0  0  0  0  0  0  0  0  0  0  0  0  0  0  0  0  0  0  0  0  0  0  0  0  0  0 | aq = 2/19/2020
  0  0  0  0  0  0  0  0  0  0  0  0  0  0  0  0  0  0  0  0  0  0  0  0  0  0  0  0  0  0  0  0  0  1  1  2  0  0  1  0  1  0  2  4  3  4  1  1  1  1  0  0  0  0  0  0  0  0  0  0  0  0  0  0  0  1  0  0  0  0  0  0  0  0  0  0  0  0  0  0  0  0  0  0  0  0  0  0  0  0  0  0 | ar = 2/18/2020
  0  0  0  0  0  0  0  0  0  0  0  0  0  0  0  0  0  0  0  0  0  0  0  1  1  0  0  0  0  0  0  0  0  0  2  1  0  0  0  0  0  1  2  6  4  0  1  1  1  1  0  0  0  0  0  0  0  0  0  0  0  0  0  0  0  0  0  0  0  2  0  0  0  0  0  0  0  0  0  0  0  0  0  0  0  0  0  0  0  0  0  0 | as = 2/17/2020
  0  0  0  0  0  0  0  0  0  0  0  0  0  0  0  0  0  0  0  0  0  0  0  0  0  0  0  0  0  0  0  0  0  0  0  0  0  0  0  0  0  0  2  7  2 10  2  1  0  0  0  0  0  0  0  0  0  0  0  0  0  0  0  0  0  0  0  0  0  0  0  0  0  0  0  0  0  0  0  0  0  0  0  0  0  0  0  0  0  0  0  0 | at = 2/16/2020
  0  0  0  0  0  0  0  0  0  0  1  0  0  0  0  0  0  0  0  0  0  0  0  0  0  0  0  0  0  0  1  0  0  0  0  1  0  0  0  0  0  0  0  1  2  0 10  3  0  1  0  0  0  0  0  0  0  0  1  0  0  0  0  0  0  0  2  0  0  1  0  0  0  0  0  0  0  0  0  0  0  0  0  0  0  0  0  0  0  0  0  0 | au = 2/15/2020
  0  0  0  0  0  0  0  0  0  0  0  0  0  0  0  0  0  0  0  0  0  0  0  0  0  0  0  0  0  0  0  0  0  0  0  0  0  0  0  0  0  0  0  1  1  0  3 17  0  0  1  0  0  0  0  0  0  0  0  0  0  0  0  0  0  0  1  0  0  0  0  0  0  0  0  0  0  0  0  0  0  0  0  0  0  0  0  0  0  0  0  0 | av = 2/14/2020
  0  0  0  0  0  0  0  0  0  0  0  0  0  0  2  1  0  0  0  0  0  0  0  0  0  0  0  0  0  0  1  0  0  0  0  1  0  0  0  0  0  0  0  0  2  0  0  1 13  0  0  0  0  0  0  0  0  0  0  0  0  0  0  0  0  0  0  1  2  0  0  0  0  0  0  0  0  0  0  0  0  0  0  0  0  0  0  0  0  0  0  0 | aw = 2/13/2020
  0  0  0  0  0  0  0  0  0  0  1  0  0  0  0  0  0  0  0  0  0  0  0  0  0  0  0  0  0  0  0  0  0  0  0  0  0  0  0  0  0  0  0  0  2  0  0  0  0 18  0  0  0  0  0  0  0  1  0  0  1  0  0  0  0  1  0  0  0  0  0  0  0  0  0  0  0  0  0  0  0  0  0  0  0  0  0  0  0  0  0  0 | ax = 2/12/2020
  0  0  0  0  0  0  0  0  0  0  0  0  0  0  0  0  0  0  0  0  0  0  0  0  0  0  0  0  0  0  0  0  0  0  0  0  0  0  0  0  0  0  0  0  0  0  0  0  0  1 19  2  0  0  0  0  0  0  0  2  0  0  0  0  0  0  0  0  0  0  0  0  0  0  0  0  0  0  0  0  0  0  0  0  0  0  0  0  0  0  0  0 | ay = 2/11/2020
  0  0  0  0  0  0  0  0  0  0  0  0  0  0  0  0  0  0  0  0  0  0  0  0  0  0  0  0  0  0  0  0  0  0  0  0  0  0  0  0  0  0  0  0  0  0  0  0  0  0  1 14  4  0  0  0  0  0  0  1  0  0  0  0  0  0  0  4  0  0  0  0  0  0  0  0  0  0  0  0  0  0  0  0  0  0  0  0  0  0  0  0 | az = 2/10/2020
  0  0  0  0  0  0  0  0  0  0  0  0  0  0  0  0  0  0  0  0  0  0  0  0  0  0  0  0  0  0  0  0  0  0  0  0  0  0  0  0  0  0  0  0  0  0  0  0  0  0  1  8 12  3  0  0  0  0  0  0  0  0  0  0  0  0  0  0  0  0  0  0  0  0  0  0  0  0  0  0  0  0  0  0  0  0  0  0  0  0  0  0 | ba = 2/9/2020
  0  0  1  0  0  0  0  0  0  0  0  0  0  0  0  1  0  0  0  0  0  0  0  0  1  0  0  0  0  0  0  0  0  0  0  0  0  0  0  0  0  0  0  0  0  0  0  0  0  0  0  0  3 14  0  0  0  0  0  0  1  1  0  0  0  0  0  0  1  0  0  1  0  0  0  0  0  0  0  0  0  0  0  0  0  0  0  0  0  0  0  0 | bb = 2/8/2020
  0  0  0  0  1  0  0  0  0  0  0  0  1  0  0  0  0  1  0  0  0  0  0  0  0  0  0  0  0  0  0  1  0  0  0  0  0  0  0  0  0  0  0  0  0  0  0  0  0  0  0  0  0  0 16  1  0  0  1  0  0  1  0  0  0  1  0  0  0  0  0  0  0  0  0  0  0  0  0  0  0  0  0  0  0  0  0  0  0  0  0  0 | bc = 2/7/2020
  0  0  0  0  0  0  0  0  0  0  0  0  0  0  0  0  0  0  0  0  0  0  0  0  0  0  0  0  0  0  0  0  0  0  0  0  0  0  0  0  0  0  0  0  0  0  0  0  0  0  0  0  0  0  0 21  3  0  0  0  0  0  0  0  0  0  0  0  0  0  0  0  0  0  0  0  0  0  0  0  0  0  0  0  0  0  0  0  0  0  0  0 | bd = 2/6/2020
  0  0  0  0  0  0  0  0  0  0  0  0  0  0  0  0  0  0  0  0  0  0  0  0  0  0  0  0  0  0  0  0  0  0  0  0  0  0  0  0  0  0  0  0  0  0  0  0  0  0  0  0  0  0  0  3 18  0  0  0  0  0  1  0  1  0  0  0  0  1  0  0  0  0  0  0  0  0  0  0  0  0  0  0  0  0  0  0  0  0  0  0 | be = 2/5/2020
  0  0  0  0  0  0  0  0  0  0  0  0  0  0  0  0  0  0  0  0  0  0  0  2  0  2  0  0  0  0  0  0  0  0  0  0  0  0  0  0  0  0  0  0  0  0  0  0  0  0  0  0  0  1  2  0  1 12  0  0  1  0  0  0  0  0  1  1  0  0  0  0  0  0  0  0  0  0  0  0  0  0  0  0  0  1  0  0  0  0  0  0 | bf = 2/4/2020
  0  0  0  0  0  0  0  0  0  0  0  0  0  0  0  0  0  0  0  0  0  0  0  0  0  1  0  0  1  0  0  0  0  1  0  0  0  0  0  0  1  0  0  0  0  0  0  0  0  0  0  0  0  0  0  0  0  1 14  2  2  0  0  0  0  0  0  0  0  1  0  0  0  0  0  0  0  0  0  0  0  0  0  0  0  0  0  0  0  0  0  0 | bg = 2/3/2020
  0  0  0  0  0  0  0  0  0  0  0  0  0  0  0  0  0  0  0  0  0  0  0  1  0  0  0  0  0  0  0  0  0  0  0  0  0  0  0  0  0  1  0  0  0  0  0  0  0  0  1  0  0  0  0  0  0  0  4 12  3  0  0  0  0  0  0  2  0  0  0  0  0  0  0  0  0  0  0  0  0  0  0  0  0  0  0  0  0  0  0  0 | bh = 2/2/2020
  0  0  0  0  0  0  0  0  0  0  0  0  0  0  0  0  0  0  0  0  0  0  0  1  0  0  0  0  0  0  0  0  0  0  0  0  0  0  0  0  0  0  0  0  0  0  1  0  0  1  1  0  0  3  0  0  0  0  2  2  8  0  0  0  0  0  0  2  0  1  1  1  0  0  0  0  0  0  0  0  0  0  0  0  0  0  0  0  0  0  0  0 | bi = 2/1/2020
  0  0  0  0  0  0  0  0  0  0  0  0  0  0  0  0  0  0  0  0  0  0  0  0  0  0  0  0  0  0  0  0  0  0  0  0  0  0  0  0  0  0  0  0  0  0  0  0  0  0  0  0  0  1  2  0  0  0  0  0  0 17  2  0  0  0  0  0  0  0  2  0  0  0  0  0  0  0  0  0  0  0  0  0  0  0  0  0  0  0  0  0 | bj = 1/31/2020
  0  0  0  0  0  0  0  0  0  0  0  0  0  0  0  0  0  0  0  0  0  0  0  0  0  0  0  0  0  0  0  0  0  0  0  0  0  0  0  0  0  0  0  0  0  0  0  0  0  0  0  0  0  0  0  0  0  0  0  0  0  1 16  1  4  0  0  0  0  1  1  0  0  0  0  0  0  0  0  0  0  0  0  0  0  0  0  0  0  0  0  0 | bk = 1/30/2020
  0  0  0  0  0  0  0  0  0  0  0  0  0  0  0  0  0  0  0  0  0  0  0  0  0  0  0  0  0  0  0  0  0  0  0  0  0  0  0  0  0  0  0  0  0  0  0  0  0  0  0  0  0  0  0  0  0  0  0  0  0  0  2 18  3  1  0  0  0  0  0  0  0  0  0  0  0  0  0  0  0  0  0  0  0  0  0  0  0  0  0  0 | bl = 1/29/2020
  0  0  0  0  0  0  0  0  0  0  0  0  0  0  0  0  0  0  0  0  0  0  0  0  0  0  0  0  0  0  0  0  0  0  0  0  0  0  0  0  0  0  0  0  0  0  0  0  0  0  0  0  0  0  0  0  1  0  0  0  0  0  4  5  7  1  2  2  0  0  2  0  0  0  0  0  0  0  0  0  0  0  0  0  0  0  0  0  0  0  0  0 | bm = 1/28/2020
  0  0  0  0  0  0  0  0  0  0  0  0  0  0  0  0  0  0  0  0  0  0  0  0  1  0  0  0  0  0  1  0  0  0  0  1  0  0  0  0  0  0  1  0  0  0  0  0  0  1  0  0  0  0  0  0  1  0  2  1  0  0  0  2  0 11  0  1  0  0  1  0  0  0  0  0  0  0  0  0  0  0  0  0  0  0  0  0  0  0  0  0 | bn = 1/27/2020
